{"learner":{"attributes":{"best_iteration":"91","best_score":"0.8404247074323801","scikit_learn":"{\"_estimator_type\": \"classifier\"}"},"feature_names":[],"feature_types":[],"gradient_booster":{"model":{"cats":{"enc":[],"feature_segments":[],"sorted_idx":[]},"gbtree_model_param":{"num_parallel_tree":"1","num_trees":"132"},"iteration_indptr":[0,1,2,3,4,5,6,7,8,9,10,11,12,13,14,15,16,17,18,19,20,21,22,23,24,25,26,27,28,29,30,31,32,33,34,35,36,37,38,39,40,41,42,43,44,45,46,47,48,49,50,51,52,53,54,55,56,57,58,59,60,61,62,63,64,65,66,67,68,69,70,71,72,73,74,75,76,77,78,79,80,81,82,83,84,85,86,87,88,89,90,91,92,93,94,95,96,97,98,99,100,101,102,103,104,105,106,107,108,109,110,111,112,113,114,115,116,117,118,119,120,121,122,123,124,125,126,127,128,129,130,131,132],"tree_info":[0,0,0,0,0,0,0,0,0,0,0,0,0,0,0,0,0,0,0,0,0,0,0,0,0,0,0,0,0,0,0,0,0,0,0,0,0,0,0,0,0,0,0,0,0,0,0,0,0,0,0,0,0,0,0,0,0,0,0,0,0,0,0,0,0,0,0,0,0,0,0,0,0,0,0,0,0,0,0,0,0,0,0,0,0,0,0,0,0,0,0,0,0,0,0,0,0,0,0,0,0,0,0,0,0,0,0,0,0,0,0,0,0,0,0,0,0,0,0,0,0,0,0,0,0,0,0,0,0,0,0,0],"trees":[{"base_weights":[-8.552454E-3,6.9125414E-1,-1.361866E0,9.753815E-1,-1.1808771E-1,-1.5828937E0,-7.2063655E-1,1.2210951E0,4.847452E-1,-2.9329014E-1,5.8210796E-1,-1.3003939E0,-1.8253647E0,-2.2657515E-1,-1.3153687E0,3.5062615E-2,7.37519E-2,-2.2254791E-2,3.579139E-2,2.4515303E-2,-2.5892256E-2,6.598564E-2,-1.5560138E-2,-9.2906766E-2,-5.133102E-2,-9.195066E-2,-2.365082E-3,3.3268917E-3,-3.0768475E-2,-2.4268784E-2,-7.376983E-2],"categories":[],"categories_nodes":[],"categories_segments":[],"categories_sizes":[],"default_left":[0,0,0,0,0,0,0,0,0,0,0,0,0,0,0,0,0,0,0,0,0,0,0,0,0,0,0,0,0,0,0],"id":0,"left_children":[1,3,5,7,9,11,13,15,17,19,21,23,25,27,29,-1,-1,-1,-1,-1,-1,-1,-1,-1,-1,-1,-1,-1,-1,-1,-1],"loss_changes":[1.3108032E3,2.0990967E2,6.572186E1,8.082843E1,2.9361538E1,2.1600403E1,3.5774643E1,5.82843E1,4.9099392E1,3.386092E1,3.2011063E1,2.330716E1,4.423584E0,7.8206167E0,6.6553726E0,0E0,0E0,0E0,0E0,0E0,0E0,0E0,0E0,0E0,0E0,0E0,0E0,0E0,0E0,0E0,0E0],"parents":[2147483647,0,0,1,1,2,2,3,3,4,4,5,5,6,6,7,7,8,8,9,9,10,10,11,11,12,12,13,13,14,14],"right_children":[2,4,6,8,10,12,14,16,18,20,22,24,26,28,30,-1,-1,-1,-1,-1,-1,-1,-1,-1,-1,-1,-1,-1,-1,-1,-1],"split_conditions":[1E0,1E0,9.48E1,1.7E1,8.99E1,2E0,2E0,1E0,1E0,2E0,3.1E1,3.045E1,9.385E1,6E1,5.9E1,3.5062615E-2,7.37519E-2,-2.2254791E-2,3.579139E-2,2.4515303E-2,-2.5892256E-2,6.598564E-2,-1.5560138E-2,-9.2906766E-2,-5.133102E-2,-9.195066E-2,-2.365082E-3,3.3268917E-3,-3.0768475E-2,-2.4268784E-2,-7.376983E-2],"split_indices":[16,10,2,1,2,16,16,9,9,1,1,2,2,1,1,0,0,0,0,0,0,0,0,0,0,0,0,0,0,0,0],"split_type":[0,0,0,0,0,0,0,0,0,0,0,0,0,0,0,0,0,0,0,0,0,0,0,0,0,0,0,0,0,0,0],"sum_hessian":[1.3820856E3,9.113238E2,4.707618E2,6.743733E2,2.3695049E2,3.4899643E2,1.2176539E2,4.483488E2,2.2602452E2,1.8999197E2,4.695852E1,1.641318E2,1.8486462E2,6.726628E1,5.4499107E1,1.4837466E2,2.9997412E2,4.4805977E1,1.8121855E2,4.2055084E1,1.4793689E2,2.545941E1,2.1499107E1,5.213448E1,1.1199732E2,1.834224E2,1.442239E0,3.8824932E1,2.8441347E1,9.461195E0,4.503791E1],"tree_param":{"num_deleted":"0","num_feature":"19","num_nodes":"31","size_leaf_vector":"1"}},{"base_weights":[-7.2501795E-3,6.629913E-1,-1.320681E0,9.310643E-1,-1.13180704E-1,-9.619732E-1,-1.6583937E0,1.2311443E0,5.8141375E-1,2.5551578E-1,-4.1565713E-1,-1.4317976E0,-4.5569155E-1,-8.955085E-2,-1.4211012E0,3.987333E-2,7.248559E-2,-6.8599754E-3,3.919501E-2,2.7543042E-2,-1.9597173E-2,2.9700652E-2,-3.5640463E-2,-5.6542434E-2,-9.093783E-2,-1.3605791E-2,-4.473146E-2,9.6350005E-3,-7.585222E-2],"categories":[],"categories_nodes":[],"categories_segments":[],"categories_sizes":[],"default_left":[0,0,0,0,0,0,0,0,0,0,0,0,0,0,0,0,0,0,0,0,0,0,0,0,0,0,0,0,0],"id":1,"left_children":[1,3,5,7,9,11,13,15,17,19,21,23,25,-1,27,-1,-1,-1,-1,-1,-1,-1,-1,-1,-1,-1,-1,-1,-1],"loss_changes":[1.2287216E3,1.9239981E2,5.5534546E1,7.137024E1,2.6664246E1,5.431137E1,5.055786E0,3.3804626E1,4.6554825E1,2.0857044E1,3.978662E1,1.1846237E1,8.836777E0,0E0,1.4449509E1,0E0,0E0,0E0,0E0,0E0,0E0,0E0,0E0,0E0,0E0,0E0,0E0,0E0,0E0],"parents":[2147483647,0,0,1,1,2,2,3,3,4,4,5,5,6,6,7,7,8,8,9,9,10,10,11,11,12,12,14,14],"right_children":[2,4,6,8,10,12,14,16,18,20,22,24,26,-1,28,-1,-1,-1,-1,-1,-1,-1,-1,-1,-1,-1,-1,-1,-1],"split_conditions":[1E0,1E0,2E0,1.1E1,1E0,2E0,4.99025E3,1E0,1E0,3.1E1,2.065E1,2E0,1E0,-8.955085E-2,5.5E1,3.987333E-2,7.248559E-2,-6.8599754E-3,3.919501E-2,2.7543042E-2,-1.9597173E-2,2.9700652E-2,-3.5640463E-2,-5.6542434E-2,-9.093783E-2,-1.3605791E-2,-4.473146E-2,9.6350005E-3,-7.585222E-2],"split_indices":[16,10,16,1,13,15,3,9,9,1,3,9,6,0,1,0,0,0,0,0,0,0,0,0,0,0,0,0,0],"split_type":[0,0,0,0,0,0,0,0,0,0,0,0,0,0,0,0,0,0,0,0,0,0,0,0,0,0,0,0,0],"sum_hessian":[1.393779E3,9.2317816E2,4.7060098E2,6.860364E2,2.3714172E2,2.3007314E2,2.4052785E2,3.6783173E2,3.1820468E2,1.0694225E2,1.3019948E2,1.1838498E2,1.11688156E2,1.5009283E2,9.0435005E1,1.2481824E2,2.4301349E2,7.002217E1,2.4818251E2,7.354373E1,3.339852E1,2.9378279E1,1.008212E2,6.879982E1,4.958516E1,7.989417E1,3.179398E1,5.018217E0,8.5416794E1],"tree_param":{"num_deleted":"0","num_feature":"19","num_nodes":"29","size_leaf_vector":"1"}},{"base_weights":[-2.3603668E-3,6.2635165E-1,-1.2372082E0,8.9072347E-1,-1.11526474E-1,-1.4487275E0,-6.6838443E-1,1.1812396E0,5.536776E-1,-3.7751102E-1,3.9018792E-1,-9.1577077E-1,-1.6024125E0,-1.0639895E-1,-1.0651574E0,4.392641E-2,7.5789936E-2,-8.516631E-3,3.8002428E-2,6.141841E-3,-4.1946195E-2,3.9238434E-2,-8.025338E-3,-2.5407488E-2,-7.089892E-2,-8.487391E-2,-6.422223E-2,-5.7056587E-2,6.811786E-4,-3.7799925E-2,-6.1807502E-2],"categories":[],"categories_nodes":[],"categories_segments":[],"categories_sizes":[],"default_left":[0,0,0,0,0,0,0,0,0,0,0,0,0,0,0,0,0,0,0,0,0,0,0,0,0,0,0,0,0,0,0],"id":2,"left_children":[1,3,5,7,9,11,13,15,17,19,21,23,25,27,29,-1,-1,-1,-1,-1,-1,-1,-1,-1,-1,-1,-1,-1,-1,-1,-1],"loss_changes":[1.0822864E3,1.8029645E2,5.5618103E1,6.594794E1,3.278213E1,2.6542542E1,2.8726662E1,3.5575592E1,4.7458E1,3.7117783E1,1.8643951E1,1.5425835E1,5.8027954E0,6.8009195E0,3.0673752E0,0E0,0E0,0E0,0E0,0E0,0E0,0E0,0E0,0E0,0E0,0E0,0E0,0E0,0E0,0E0,0E0],"parents":[2147483647,0,0,1,1,2,2,3,3,4,4,5,5,6,6,7,7,8,8,9,9,10,10,11,11,12,12,13,13,14,14],"right_children":[2,4,6,8,10,12,14,16,18,20,22,24,26,28,30,-1,-1,-1,-1,-1,-1,-1,-1,-1,-1,-1,-1,-1,-1,-1,-1],"split_conditions":[1E0,1E0,9.35E1,1.1E1,7.295E1,1E0,6E1,7.47E1,1E0,6E0,3E1,4.9E1,7.38E1,3.3E1,2E0,4.392641E-2,7.5789936E-2,-8.516631E-3,3.8002428E-2,6.141841E-3,-4.1946195E-2,3.9238434E-2,-8.025338E-3,-2.5407488E-2,-7.089892E-2,-8.487391E-2,-6.422223E-2,-5.7056587E-2,6.811786E-4,-3.7799925E-2,-6.1807502E-2],"split_indices":[16,10,2,1,2,10,1,2,9,1,1,1,2,1,16,0,0,0,0,0,0,0,0,0,0,0,0,0,0,0,0],"split_type":[0,0,0,0,0,0,0,0,0,0,0,0,0,0,0,0,0,0,0,0,0,0,0,0,0,0,0,0,0,0,0],"sum_hessian":[1.3920472E3,9.2273663E2,4.6931055E2,6.791863E2,2.435504E2,3.40972E2,1.2833856E2,3.6342664E2,3.157596E2,1.5932932E2,8.4221085E1,7.787425E1,2.6309775E2,5.3636494E1,7.4702065E1,1.9269806E2,1.7072856E2,7.0078445E1,2.4568118E2,7.6791626E1,8.253769E1,4.881755E1,3.5403538E1,4.4095554E1,3.37787E1,1.9920206E2,6.3895687E1,4.690585E0,4.8945908E1,2.8533686E1,4.6168377E1],"tree_param":{"num_deleted":"0","num_feature":"19","num_nodes":"31","size_leaf_vector":"1"}},{"base_weights":[1.1516256E-2,6.2139094E-1,-1.168904E0,8.49602E-1,-5.896561E-2,-1.3774604E0,-6.088124E-1,3.9257562E-1,1.0248721E0,-3.3614302E-1,4.8600653E-1,-1.0772307E0,-8.1508584E-2,-9.0844184E-2,-9.831779E-1,4.3008298E-2,-1.8688148E-3,6.381097E-2,3.2900397E-2,3.096259E-2,-3.1124342E-2,4.038013E-2,-7.562133E-3,-4.1553188E-2,-8.080567E-2,-1.3517565E-4,-7.040984E-2,-3.2237675E-2,-5.8959067E-2],"categories":[],"categories_nodes":[],"categories_segments":[],"categories_sizes":[],"default_left":[0,0,0,0,0,0,0,0,0,0,0,0,0,0,0,0,0,0,0,0,0,0,0,0,0,0,0,0,0],"id":3,"left_children":[1,3,5,7,9,11,13,15,17,19,21,23,-1,25,27,-1,-1,-1,-1,-1,-1,-1,-1,-1,-1,-1,-1,-1,-1],"loss_changes":[1.00185144E3,1.4251428E2,5.4538208E1,5.4640594E1,3.5117817E1,2.4393127E1,2.5200695E1,3.865151E1,4.490161E1,4.2509995E1,1.6194054E1,1.994336E1,0E0,6.4773927E0,4.254677E0,0E0,0E0,0E0,0E0,0E0,0E0,0E0,0E0,0E0,0E0,0E0,0E0,0E0,0E0],"parents":[2147483647,0,0,1,1,2,2,3,3,4,4,5,5,6,6,7,7,8,8,9,9,10,10,11,11,13,13,14,14],"right_children":[2,4,6,8,10,12,14,16,18,20,22,24,-1,26,28,-1,-1,-1,-1,-1,-1,-1,-1,-1,-1,-1,-1,-1,-1],"split_conditions":[1E0,1E0,9.35E1,1E0,7.915E1,2E0,6E1,2.294E2,1.6E1,2.47E1,3.3E1,2E0,-8.1508584E-2,1.1145E2,2E0,4.3008298E-2,-1.8688148E-3,6.381097E-2,3.2900397E-2,3.096259E-2,-3.1124342E-2,4.038013E-2,-7.562133E-3,-4.1553188E-2,-8.080567E-2,-1.3517565E-4,-7.040984E-2,-3.2237675E-2,-5.8959067E-2],"split_indices":[16,13,2,9,2,16,1,3,1,3,1,9,0,2,16,0,0,0,0,0,0,0,0,0,0,0,0,0,0],"split_type":[0,0,0,0,0,0,0,0,0,0,0,0,0,0,0,0,0,0,0,0,0,0,0,0,0,0,0,0,0],"sum_hessian":[1.3896285E3,9.165555E2,4.7307303E2,6.8615173E2,2.304037E2,3.4365125E2,1.2942178E2,1.9109659E2,4.9505518E2,1.5297998E2,7.742371E1,1.594646E2,1.8418665E2,5.481835E1,7.460344E1,9.106216E1,1.0003443E2,2.923088E2,2.0274637E2,3.500895E1,1.1797104E2,5.1278187E1,2.614553E1,1.1120655E2,4.825805E1,5.2319817E1,2.4985323E0,2.8934278E1,4.5669155E1],"tree_param":{"num_deleted":"0","num_feature":"19","num_nodes":"29","size_leaf_vector":"1"}},{"base_weights":[1.4484927E-2,6.10901E-1,-1.1510998E0,8.544261E-1,-8.340528E-2,-7.947121E-1,-1.4916079E0,1.323841E0,7.184201E-1,-2.6285934E-1,6.1447656E-1,-1.2727534E0,-3.190866E-1,-1.5845515E0,-1.0249398E0,6.872545E-2,2.1182505E-2,4.2839022E-3,4.6275765E-2,1.7314157E-2,-2.102313E-2,6.6168584E-2,-8.738133E-3,-3.529677E-2,-7.427202E-2,-2.8950054E-2,1.1776299E-3,-8.093199E-2,-5.4371186E-2,-3.3091035E-2,-8.227434E-2],"categories":[],"categories_nodes":[],"categories_segments":[],"categories_sizes":[],"default_left":[0,0,0,0,0,0,0,0,0,0,0,0,0,0,0,0,0,0,0,0,0,0,0,0,0,0,0,0,0,0,0],"id":4,"left_children":[1,3,5,7,9,11,13,15,17,19,21,23,25,27,29,-1,-1,-1,-1,-1,-1,-1,-1,-1,-1,-1,-1,-1,-1,-1,-1],"loss_changes":[9.622415E2,1.5488736E2,5.567212E1,4.2332092E1,3.0052235E1,5.213144E1,8.718933E0,6.3101807E0,6.908841E1,1.8439243E1,2.7712517E1,1.280394E1,1.0447641E1,1.5787048E0,8.473381E0,0E0,0E0,0E0,0E0,0E0,0E0,0E0,0E0,0E0,0E0,0E0,0E0,0E0,0E0,0E0,0E0],"parents":[2147483647,0,0,1,1,2,2,3,3,4,4,5,5,6,6,7,7,8,8,9,9,10,10,11,11,12,12,13,13,14,14],"right_children":[2,4,6,8,10,12,14,16,18,20,22,24,26,28,30,-1,-1,-1,-1,-1,-1,-1,-1,-1,-1,-1,-1,-1,-1,-1,-1],"split_conditions":[1E0,1E0,2E0,9.85E1,8.99E1,7.38E1,1.0305E2,1E0,7E1,3.5E1,2.90755E3,1E0,2E0,1E0,7.8524E3,6.872545E-2,2.1182505E-2,4.2839022E-3,4.6275765E-2,1.7314157E-2,-2.102313E-2,6.6168584E-2,-8.738133E-3,-3.529677E-2,-7.427202E-2,-2.8950054E-2,1.1776299E-3,-8.093199E-2,-5.4371186E-2,-3.3091035E-2,-8.227434E-2],"split_indices":[16,10,16,3,2,2,2,13,2,3,3,10,18,0,3,0,0,0,0,0,0,0,0,0,0,0,0,0,0,0,0],"split_type":[0,0,0,0,0,0,0,0,0,0,0,0,0,0,0,0,0,0,0,0,0,0,0,0,0,0,0,0,0,0,0],"sum_hessian":[1.3821632E3,9.146324E2,4.675308E2,6.769606E2,2.3767177E2,2.3006776E2,2.3746303E2,1.5011519E2,5.268454E2,1.895532E2,4.811857E1,1.1390665E2,1.1616112E2,1.9602621E2,4.143682E1,1.4161723E2,8.497957E0,1.3026328E2,3.9658212E2,3.8716248E1,1.5083696E2,2.4993038E1,2.312553E1,3.2257767E1,8.164887E1,6.5662186E1,5.049893E1,1.813359E2,1.46903E1,2.7444134E1,1.3992687E1],"tree_param":{"num_deleted":"0","num_feature":"19","num_nodes":"31","size_leaf_vector":"1"}},{"base_weights":[3.2953366E-3,5.550997E-1,-1.0714611E0,7.798543E-1,-7.851321E-2,-1.2778498E0,-5.41181E-1,1.0474936E0,4.7013965E-1,-2.214082E-1,5.51335E-1,-7.724338E-1,-1.4349271E0,-4.945653E-2,-8.806966E-1,3.8526386E-2,7.0438564E-2,-7.0723253E-3,3.272956E-2,2.3125807E-2,-2.149088E-2,6.631992E-2,-5.95279E-3,-4.7713358E-2,1.8210415E-3,-6.8131156E-2,-8.217574E-2,1.8687036E-3,-6.741932E-2,-1.8079309E-2,-5.117926E-2],"categories":[],"categories_nodes":[],"categories_segments":[],"categories_sizes":[],"default_left":[0,0,0,0,0,0,0,0,0,0,0,0,0,0,0,0,0,0,0,0,0,0,0,0,0,0,0,0,0,0,0],"id":5,"left_children":[1,3,5,7,9,11,13,15,17,19,21,23,25,27,29,-1,-1,-1,-1,-1,-1,-1,-1,-1,-1,-1,-1,-1,-1,-1,-1],"loss_changes":[8.172804E2,1.2973325E2,5.047461E1,5.523065E1,2.166246E1,2.5550232E1,2.2112915E1,3.4916656E1,3.5450966E1,2.810574E1,2.3302553E1,1.2063179E1,1.6065674E0,6.2836876E0,5.4488144E0,0E0,0E0,0E0,0E0,0E0,0E0,0E0,0E0,0E0,0E0,0E0,0E0,0E0,0E0,0E0,0E0],"parents":[2147483647,0,0,1,1,2,2,3,3,4,4,5,5,6,6,7,7,8,8,9,9,10,10,11,11,12,12,13,13,14,14],"right_children":[2,4,6,8,10,12,14,16,18,20,22,24,26,28,30,-1,-1,-1,-1,-1,-1,-1,-1,-1,-1,-1,-1,-1,-1,-1,-1],"split_conditions":[1E0,1E0,9.35E1,1.1E1,9.105E1,1E0,5.9E1,7.585E1,1E0,2E0,2.9E1,3E0,6.8E1,1.1145E2,1E0,3.8526386E-2,7.0438564E-2,-7.0723253E-3,3.272956E-2,2.3125807E-2,-2.149088E-2,6.631992E-2,-5.95279E-3,-4.7713358E-2,1.8210415E-3,-6.8131156E-2,-8.217574E-2,1.8687036E-3,-6.741932E-2,-1.8079309E-2,-5.117926E-2],"split_indices":[16,10,2,1,2,10,1,2,9,1,1,18,1,2,11,0,0,0,0,0,0,0,0,0,0,0,0,0,0,0,0],"split_type":[0,0,0,0,0,0,0,0,0,0,0,0,0,0,0,0,0,0,0,0,0,0,0,0,0,0,0,0,0,0,0],"sum_hessian":[1.3760817E3,9.095708E2,4.6651083E2,6.7123883E2,2.3833197E2,3.347961E2,1.3171472E2,3.588002E2,3.1243863E2,1.9478839E2,4.354358E1,8.07833E1,2.5401282E2,5.426612E1,7.744861E1,2.0487209E2,1.5392813E2,7.244981E1,2.3998882E2,4.5209118E1,1.4957927E2,1.9741343E1,2.3802238E1,6.580936E1,1.49739485E1,1.9422134E2,5.979148E1,5.1776222E1,2.4898994E0,1.7478874E1,5.996973E1],"tree_param":{"num_deleted":"0","num_feature":"19","num_nodes":"31","size_leaf_vector":"1"}},{"base_weights":[-1.8501937E-2,5.1667833E-1,-1.0633801E0,7.326848E-1,-9.8335706E-2,-5.8304036E-1,-1.276984E0,1.0057604E0,4.2095947E-1,2.4407777E-1,-3.0361515E-1,-3.039945E-1,-1.169806E0,-7.271709E-2,-1.0629984E0,3.1444248E-2,6.0247865E-2,-6.949065E-3,2.9009579E-2,2.1611258E-2,-2.1084612E-2,2.3908218E-2,-2.9063508E-2,-2.890642E-2,3.616107E-4,-6.352002E-2,-3.3447612E-2,1.7459708E-3,-5.6638718E-2],"categories":[],"categories_nodes":[],"categories_segments":[],"categories_sizes":[],"default_left":[0,0,0,0,0,0,0,0,0,0,0,0,0,0,0,0,0,0,0,0,0,0,0,0,0,0,0,0,0],"id":6,"left_children":[1,3,5,7,9,11,13,15,17,19,21,23,25,-1,27,-1,-1,-1,-1,-1,-1,-1,-1,-1,-1,-1,-1,-1,-1],"loss_changes":[7.583636E2,1.1921469E2,4.6384827E1,5.608609E1,1.6521845E1,2.3096085E1,1.0488892E1,2.5753235E1,2.7872429E1,1.1237735E1,3.2129776E1,8.40107E0,1.458271E0,0E0,1.1333984E1,0E0,0E0,0E0,0E0,0E0,0E0,0E0,0E0,0E0,0E0,0E0,0E0,0E0,0E0],"parents":[2147483647,0,0,1,1,2,2,3,3,4,4,5,5,6,6,7,7,8,8,9,9,10,10,11,11,12,12,14,14],"right_children":[2,4,6,8,10,12,14,16,18,20,22,24,26,-1,28,-1,-1,-1,-1,-1,-1,-1,-1,-1,-1,-1,-1,-1,-1],"split_conditions":[1E0,1E0,1E0,1.1E1,1E0,2E0,3.0436E3,1E0,1E0,3E0,2E0,2E0,7.29175E3,-7.271709E-2,4.3E1,3.1444248E-2,6.0247865E-2,-6.949065E-3,2.9009579E-2,2.1611258E-2,-2.1084612E-2,2.3908218E-2,-2.9063508E-2,-2.890642E-2,3.616107E-4,-6.352002E-2,-3.3447612E-2,1.7459708E-3,-5.6638718E-2],"split_indices":[16,13,10,1,11,16,3,9,9,18,1,18,3,0,1,0,0,0,0,0,0,0,0,0,0,0,0,0,0],"split_type":[0,0,0,0,0,0,0,0,0,0,0,0,0,0,0,0,0,0,0,0,0,0,0,0,0,0,0,0,0],"sum_hessian":[1.35418E3,8.958411E2,4.583389E2,6.628443E2,2.329968E2,1.4223003E2,3.1610886E2,3.521392E2,3.107051E2,8.725812E1,1.4573868E2,9.741895E1,4.4811066E1,1.6967805E2,1.4643082E2,1.232017E2,2.2893748E2,6.8821396E1,2.4188373E2,6.830565E1,1.8952467E1,3.8005714E1,1.0773296E2,5.1340115E1,4.6078842E1,3.6036755E1,8.77431E0,8.77987E0,1.3765094E2],"tree_param":{"num_deleted":"0","num_feature":"19","num_nodes":"29","size_leaf_vector":"1"}},{"base_weights":[-3.948466E-3,4.9894848E-1,-1.0148774E0,7.1269685E-1,-8.52773E-2,-1.2193657E0,-4.6134204E-1,9.874271E-1,4.0564814E-1,-2.3158278E-1,5.38347E-1,-8.2564783E-1,-1.343528E0,7.373125E-2,-8.8616467E-1,3.7390407E-2,6.363097E-2,9.845364E-3,4.8225634E-2,1.908893E-2,-2.057319E-2,6.1123308E-2,-5.8920053E-3,8.031554E-3,-4.711642E-2,-7.1733005E-2,-5.3833574E-2,8.02595E-3,-6.402491E-2,-3.4754243E-2,-6.204158E-2],"categories":[],"categories_nodes":[],"categories_segments":[],"categories_sizes":[],"default_left":[0,0,0,0,0,0,0,0,0,0,0,0,0,0,0,0,0,0,0,0,0,0,0,0,0,0,0,0,0,0,0],"id":7,"left_children":[1,3,5,7,9,11,13,15,17,19,21,23,25,27,29,-1,-1,-1,-1,-1,-1,-1,-1,-1,-1,-1,-1,-1,-1,-1,-1],"loss_changes":[6.9323004E2,1.13773346E2,5.0711E1,5.584659E1,2.2460903E1,1.50312195E1,2.8208036E1,2.304953E1,3.674045E1,2.2111843E1,2.1162188E1,9.559551E0,4.521057E0,6.753944E0,3.819748E0,0E0,0E0,0E0,0E0,0E0,0E0,0E0,0E0,0E0,0E0,0E0,0E0,0E0,0E0,0E0,0E0],"parents":[2147483647,0,0,1,1,2,2,3,3,4,4,5,5,6,6,7,7,8,8,9,9,10,10,11,11,12,12,13,13,14,14],"right_children":[2,4,6,8,10,12,14,16,18,20,22,24,26,28,30,-1,-1,-1,-1,-1,-1,-1,-1,-1,-1,-1,-1,-1,-1,-1,-1],"split_conditions":[1E0,1E0,9.48E1,1.1E1,9.16E1,1E0,6.30285E3,7.53E1,9.59E1,2E0,2.90755E3,9.502E2,7E1,1.1145E2,1.098E2,3.7390407E-2,6.363097E-2,9.845364E-3,4.8225634E-2,1.908893E-2,-2.057319E-2,6.1123308E-2,-5.8920053E-3,8.031554E-3,-4.711642E-2,-7.1733005E-2,-5.3833574E-2,8.02595E-3,-6.402491E-2,-3.4754243E-2,-6.204158E-2],"split_indices":[16,10,2,1,2,10,3,2,2,1,3,3,2,2,2,0,0,0,0,0,0,0,0,0,0,0,0,0,0,0,0],"split_type":[0,0,0,0,0,0,0,0,0,0,0,0,0,0,0,0,0,0,0,0,0,0,0,0,0,0,0,0,0,0,0],"sum_hessian":[1.3615748E3,9.095943E2,4.5198053E2,6.6578595E2,2.4380836E2,3.2917365E2,1.22806885E2,3.5021606E2,3.155699E2,1.97988E2,4.582036E1,8.075377E1,2.4841988E2,5.4716595E1,6.8090294E1,1.9228227E2,1.5793379E2,2.307391E2,8.483077E1,4.464257E1,1.5334543E2,2.2010231E1,2.3810127E1,8.50298E0,7.225079E1,1.8191824E2,6.6501625E1,5.2249573E1,2.4670205E0,4.617366E1,2.1916634E1],"tree_param":{"num_deleted":"0","num_feature":"19","num_nodes":"31","size_leaf_vector":"1"}},{"base_weights":[7.443111E-3,4.6611676E-1,-6.743302E-1,8.554329E-1,-1.4468677E-2,-1.5984644E-1,-9.9413645E-1,4.3844286E-1,1.065124E0,-5.507132E-1,1.9467804E-1,-5.368467E-1,2.9794487E-1,-1.3276054E0,-6.226055E-1,3.1723812E-2,-2.056638E-2,4.194554E-2,5.9515852E-2,8.3329E-3,-4.0140383E-2,1.8563464E-2,-2.575746E-2,1.0970986E-2,-3.7739027E-2,4.215971E-2,-7.831711E-3,-6.985545E-2,-5.4206785E-2,-7.227505E-3,-5.336727E-2],"categories":[],"categories_nodes":[],"categories_segments":[],"categories_sizes":[],"default_left":[0,0,0,0,0,0,0,0,0,0,0,0,0,0,0,0,0,0,0,0,0,0,0,0,0,0,0,0,0,0,0],"id":8,"left_children":[1,3,5,7,9,11,13,15,17,19,21,23,25,27,29,-1,-1,-1,-1,-1,-1,-1,-1,-1,-1,-1,-1,-1,-1,-1,-1],"loss_changes":[4.2472577E2,1.519263E2,8.971953E1,3.875656E1,4.097155E1,3.650461E1,4.0884857E1,2.5547922E1,7.4347534E0,1.8669655E1,3.3141106E1,1.925801E1,2.3863642E1,1.4728088E0,3.4103615E1,0E0,0E0,0E0,0E0,0E0,0E0,0E0,0E0,0E0,0E0,0E0,0E0,0E0,0E0,0E0,0E0],"parents":[2147483647,0,0,1,1,2,2,3,3,4,4,5,5,6,6,7,7,8,8,9,9,10,10,11,11,12,12,13,13,14,14],"right_children":[2,4,6,8,10,12,14,16,18,20,22,24,26,28,30,-1,-1,-1,-1,-1,-1,-1,-1,-1,-1,-1,-1,-1,-1,-1,-1],"split_conditions":[1E0,1.7E1,2.3E1,1E0,1E0,1E0,7.38E1,1E0,7.845E1,1.25935E3,6E1,3.5E1,1E0,2E0,5.9E1,3.1723812E-2,-2.056638E-2,4.194554E-2,5.9515852E-2,8.3329E-3,-4.0140383E-2,1.8563464E-2,-2.575746E-2,1.0970986E-2,-3.7739027E-2,4.215971E-2,-7.831711E-3,-6.985545E-2,-5.4206785E-2,-7.227505E-3,-5.336727E-2],"split_indices":[10,1,1,9,9,17,2,11,2,3,1,3,13,11,1,0,0,0,0,0,0,0,0,0,0,0,0,0,0,0,0],"split_type":[0,0,0,0,0,0,0,0,0,0,0,0,0,0,0,0,0,0,0,0,0,0,0,0,0,0,0,0,0,0,0],"sum_hessian":[1.3561984E3,8.109412E2,5.452571E2,4.4758133E2,3.6335992E2,2.0958693E2,3.3567017E2,1.5079755E2,2.9678378E2,1.0149565E2,2.6186426E2,1.1484067E2,9.474626E1,1.7554016E2,1.6013E2,1.2273678E2,2.8060766E1,1.08476555E2,1.8830724E2,2.6480495E1,7.501515E1,2.1007791E2,5.1786354E1,2.568895E1,8.915172E1,4.268838E1,5.2057884E1,1.3287091E2,4.266924E1,7.781303E1,8.231698E1],"tree_param":{"num_deleted":"0","num_feature":"19","num_nodes":"31","size_leaf_vector":"1"}},{"base_weights":[6.5880283E-3,4.7138658E-1,-9.439257E-1,6.8152976E-1,-9.502767E-2,-6.3200647E-1,-1.2489877E0,8.8167757E-1,3.3063856E-1,-2.9843518E-1,2.79436E-1,-1.0981029E0,-1.8135169E-1,-1.3361218E0,-8.0673456E-1,2.8725147E-2,5.6895025E-2,4.2736507E-3,4.4170737E-2,1.7805988E-2,-2.7066503E-2,2.2001524E-2,-4.010935E-2,-3.4367587E-2,-6.235988E-2,4.026468E-2,-1.2248886E-2,-6.838769E-2,-4.4161532E-2,-2.275325E-2,-7.256993E-2],"categories":[],"categories_nodes":[],"categories_segments":[],"categories_sizes":[],"default_left":[0,0,0,0,0,0,0,0,0,0,0,0,0,0,0,0,0,0,0,0,0,0,0,0,0,0,0,0,0,0,0],"id":9,"left_children":[1,3,5,7,9,11,13,15,17,19,21,23,25,27,29,-1,-1,-1,-1,-1,-1,-1,-1,-1,-1,-1,-1,-1,-1,-1,-1],"loss_changes":[5.898265E2,1.06786316E2,4.0930817E1,4.5646057E1,1.8631054E1,4.576174E1,7.4243164E0,3.2081238E1,3.23388E1,2.5357052E1,1.53313265E1,5.7178497E0,7.2562256E0,1.4107056E0,8.144703E0,0E0,0E0,0E0,0E0,0E0,0E0,0E0,0E0,0E0,0E0,0E0,0E0,0E0,0E0,0E0,0E0],"parents":[2147483647,0,0,1,1,2,2,3,3,4,4,5,5,6,6,7,7,8,8,9,9,10,10,11,11,12,12,13,13,14,14],"right_children":[2,4,6,8,10,12,14,16,18,20,22,24,26,28,30,-1,-1,-1,-1,-1,-1,-1,-1,-1,-1,-1,-1,-1,-1,-1,-1],"split_conditions":[1E0,1E0,2E0,1.6E1,7.295E1,2E0,1.0305E2,7.41E1,9.565E1,2E0,5.4E1,1E0,1.1656E3,1E0,7.8524E3,2.8725147E-2,5.6895025E-2,4.2736507E-3,4.4170737E-2,1.7805988E-2,-2.7066503E-2,2.2001524E-2,-4.010935E-2,-3.4367587E-2,-6.235988E-2,4.026468E-2,-1.2248886E-2,-6.838769E-2,-4.4161532E-2,-2.275325E-2,-7.256993E-2],"split_indices":[16,10,16,1,2,15,2,2,2,1,1,10,3,0,3,0,0,0,0,0,0,0,0,0,0,0,0,0,0,0,0],"split_type":[0,0,0,0,0,0,0,0,0,0,0,0,0,0,0,0,0,0,0,0,0,0,0,0,0,0,0,0,0,0,0],"sum_hessian":[1.3330538E3,8.956081E2,4.374458E2,6.531005E2,2.4250757E2,2.1781076E2,2.1963503E2,4.1491882E2,2.3818172E2,1.5727779E2,8.5229774E1,1.0636475E2,1.11446014E2,1.8179584E2,3.78392E1,1.90172E2,2.2474681E2,1.6580086E2,7.238085E1,4.2441086E1,1.1483671E2,7.472772E1,1.0502055E1,2.982046E1,7.654429E1,6.045294E0,1.0540072E2,1.6803917E2,1.3756655E1,2.5587114E1,1.2252087E1],"tree_param":{"num_deleted":"0","num_feature":"19","num_nodes":"31","size_leaf_vector":"1"}},{"base_weights":[3.7082264E-3,4.4909456E-1,-9.1213775E-1,6.424964E-1,-7.953913E-2,-6.098406E-1,-1.2215811E0,1.0702437E0,5.165333E-1,-2.653583E-1,3.108996E-1,-1.0527809E0,-1.7224596E-1,-1.3238475E0,-7.574032E-1,3.9107844E-2,6.585192E-2,3.6427134E-3,3.5782687E-2,2.5526864E-2,-2.390798E-2,2.9011164E-2,-2.2588206E-2,-3.3697717E-2,-5.940171E-2,-3.2004084E-2,1.2067218E-3,-6.788745E-2,-4.3873023E-2,-1.946426E-2,-7.11497E-2],"categories":[],"categories_nodes":[],"categories_segments":[],"categories_sizes":[],"default_left":[0,0,0,0,0,0,0,0,0,0,0,0,0,0,0,0,0,0,0,0,0,0,0,0,0,0,0,0,0,0,0],"id":10,"left_children":[1,3,5,7,9,11,13,15,17,19,21,23,25,27,29,-1,-1,-1,-1,-1,-1,-1,-1,-1,-1,-1,-1,-1,-1,-1,-1],"loss_changes":[5.393869E2,9.1009735E1,3.9727722E1,3.454895E1,1.7436222E1,4.2626427E1,9.099182E0,9.440567E0,4.4580475E1,2.7091763E1,1.6199457E1,4.8129654E0,1.0332237E1,1.4273987E0,9.432259E0,0E0,0E0,0E0,0E0,0E0,0E0,0E0,0E0,0E0,0E0,0E0,0E0,0E0,0E0,0E0,0E0],"parents":[2147483647,0,0,1,1,2,2,3,3,4,4,5,5,6,6,7,7,8,8,9,9,10,10,11,11,12,12,13,13,14,14],"right_children":[2,4,6,8,10,12,14,16,18,20,22,24,26,28,30,-1,-1,-1,-1,-1,-1,-1,-1,-1,-1,-1,-1,-1,-1,-1,-1],"split_conditions":[1E0,1E0,2E0,1.0725E2,7.915E1,2E0,1.0305E2,6.36E1,7.355E1,2.47E1,3.68495E3,1E0,7.94E1,1E0,7.8524E3,3.9107844E-2,6.585192E-2,3.6427134E-3,3.5782687E-2,2.5526864E-2,-2.390798E-2,2.9011164E-2,-2.2588206E-2,-3.3697717E-2,-5.940171E-2,-3.2004084E-2,1.2067218E-3,-6.788745E-2,-4.3873023E-2,-1.946426E-2,-7.11497E-2],"split_indices":[16,13,16,3,2,15,2,2,2,3,3,10,2,0,3,0,0,0,0,0,0,0,0,0,0,0,0,0,0,0,0],"split_type":[0,0,0,0,0,0,0,0,0,0,0,0,0,0,0,0,0,0,0,0,0,0,0,0,0,0,0,0,0,0,0],"sum_hessian":[1.3203295E3,8.886692E2,4.316603E2,6.5047577E2,2.3819342E2,2.1985414E2,2.1180617E2,1.4627078E2,5.0420496E2,1.6160301E2,7.659041E1,1.08561066E2,1.11293076E2,1.7204878E2,3.975738E1,6.9413124E1,7.685765E1,1.56611E2,3.4759396E2,3.4481346E1,1.2712167E2,5.6778954E1,1.9811451E1,3.0136278E1,7.842478E1,3.223661E1,7.9056465E1,1.580071E2,1.4041692E1,2.6619705E1,1.3137676E1],"tree_param":{"num_deleted":"0","num_feature":"19","num_nodes":"31","size_leaf_vector":"1"}},{"base_weights":[-1.5450302E-2,4.0843537E-1,-8.6771446E-1,5.995618E-1,-1.314543E-1,-1.0531763E0,-4.0236193E-1,1.1055101E0,4.7486746E-1,-3.461614E-1,2.9836574E-1,-6.3602304E-1,-1.1897045E0,6.227791E-2,-7.5263685E-1,4.2340823E-2,6.408845E-2,2.6098776E-3,3.419746E-2,-4.5467434E-3,-5.7197522E-2,2.9765932E-2,-2.0322558E-2,-1.4982767E-2,-5.4595497E-2,-6.788512E-2,-5.4040223E-2,7.3082815E-3,-6.1749537E-2,-2.1047821E-2,-4.7520425E-2],"categories":[],"categories_nodes":[],"categories_segments":[],"categories_sizes":[],"default_left":[0,0,0,0,0,0,0,0,0,0,0,0,0,0,0,0,0,0,0,0,0,0,0,0,0,0,0,0,0,0,0],"id":11,"left_children":[1,3,5,7,9,11,13,15,17,19,21,23,25,27,29,-1,-1,-1,-1,-1,-1,-1,-1,-1,-1,-1,-1,-1,-1,-1,-1],"loss_changes":[4.7328723E2,9.0363174E1,3.7132324E1,4.0254196E1,2.1290205E1,1.6928986E1,2.0492334E1,4.707794E0,4.5946693E1,3.116435E1,1.6361149E1,1.1744183E1,2.79187E0,6.157221E0,4.3034363E0,0E0,0E0,0E0,0E0,0E0,0E0,0E0,0E0,0E0,0E0,0E0,0E0,0E0,0E0,0E0,0E0],"parents":[2147483647,0,0,1,1,2,2,3,3,4,4,5,5,6,6,7,7,8,8,9,9,10,10,11,11,12,12,13,13,14,14],"right_children":[2,4,6,8,10,12,14,16,18,20,22,24,26,28,30,-1,-1,-1,-1,-1,-1,-1,-1,-1,-1,-1,-1,-1,-1,-1,-1],"split_conditions":[1E0,1E0,9.35E1,2E0,7.585E1,1E0,6E1,6.36E1,7.355E1,1.7E1,3.3E1,4.9E1,2.45E1,1.1145E2,2E0,4.2340823E-2,6.408845E-2,2.6098776E-3,3.419746E-2,-4.5467434E-3,-5.7197522E-2,2.9765932E-2,-2.0322558E-2,-1.4982767E-2,-5.4595497E-2,-6.788512E-2,-5.4040223E-2,7.3082815E-3,-6.1749537E-2,-2.1047821E-2,-4.7520425E-2],"split_indices":[16,13,2,1,2,10,1,2,2,1,1,1,2,2,16,0,0,0,0,0,0,0,0,0,0,0,0,0,0,0,0],"split_type":[0,0,0,0,0,0,0,0,0,0,0,0,0,0,0,0,0,0,0,0,0,0,0,0,0,0,0,0,0,0,0],"sum_hessian":[1.3081111E3,8.73957E2,4.3415414E2,6.453766E2,2.2858041E2,3.095305E2,1.2462366E2,1.26052376E2,5.193242E2,1.5256473E2,7.6015686E1,7.7720116E1,2.3181038E2,5.392041E1,7.070325E1,5.343324E1,7.261914E1,1.7228679E2,3.4703738E2,1.1643056E2,3.6134167E1,5.3591797E1,2.2423893E1,4.5676132E1,3.2043983E1,8.665775E1,1.4515262E2,5.1478863E1,2.441546E0,2.757913E1,4.312412E1],"tree_param":{"num_deleted":"0","num_feature":"19","num_nodes":"31","size_leaf_vector":"1"}},{"base_weights":[-2.1871636E-3,4.121469E-1,-8.6629087E-1,6.022766E-1,-1.1183923E-1,-5.976263E-1,-1.1454406E0,1.0588742E0,4.7030365E-1,-3.1820786E-1,3.0499926E-1,-9.042701E-1,-1.8486698E-1,-6.2411226E-2,-6.599011E-1,4.0997952E-2,6.3400365E-2,-1.8233983E-4,3.3971436E-2,2.2480603E-2,-2.7868433E-2,-1.0625939E-2,2.770405E-2,-3.322388E-2,-6.443336E-2,3.6608585E-4,-4.6013817E-2,-1.53487595E-2,-6.771313E-2],"categories":[],"categories_nodes":[],"categories_segments":[],"categories_sizes":[],"default_left":[0,0,0,0,0,0,0,0,0,0,0,0,0,0,0,0,0,0,0,0,0,0,0,0,0,0,0,0,0],"id":12,"left_children":[1,3,5,7,9,11,13,15,17,19,21,23,25,-1,27,-1,-1,-1,-1,-1,-1,-1,-1,-1,-1,-1,-1,-1,-1],"loss_changes":[4.6602173E2,8.771646E1,3.0953339E1,3.8411224E1,2.031939E1,2.7305374E1,9.446747E0,6.1545105E0,4.982955E1,2.9214306E1,1.0218134E1,1.0599113E1,1.3260744E1,0E0,8.915083E0,0E0,0E0,0E0,0E0,0E0,0E0,0E0,0E0,0E0,0E0,0E0,0E0,0E0,0E0],"parents":[2147483647,0,0,1,1,2,2,3,3,4,4,5,5,6,6,7,7,8,8,9,9,10,10,11,11,12,12,14,14],"right_children":[2,4,6,8,10,12,14,16,18,20,22,24,26,-1,28,-1,-1,-1,-1,-1,-1,-1,-1,-1,-1,-1,-1,-1,-1],"split_conditions":[1E0,1E0,2E0,1.0725E2,7.915E1,8.2E1,1.0305E2,6.36E1,7.355E1,2.47E1,2E0,1E0,6.68785E3,-6.2411226E-2,7.8524E3,4.0997952E-2,6.3400365E-2,-1.8233983E-4,3.3971436E-2,2.2480603E-2,-2.7868433E-2,-1.0625939E-2,2.770405E-2,-3.322388E-2,-6.443336E-2,3.6608585E-4,-4.6013817E-2,-1.53487595E-2,-6.771313E-2],"split_indices":[16,13,16,3,2,2,2,2,2,3,18,9,3,0,3,0,0,0,0,0,0,0,0,0,0,0,0,0,0],"split_type":[0,0,0,0,0,0,0,0,0,0,0,0,0,0,0,0,0,0,0,0,0,0,0,0,0,0,0,0,0],"sum_hessian":[1.299639E3,8.787873E2,4.2085178E2,6.44705E2,2.3408226E2,2.1605396E2,2.0479782E2,1.4298491E2,5.0172015E2,1.567266E2,7.735567E1,1.23278275E2,9.277568E1,1.6772192E2,3.7075893E1,6.90371E1,7.39478E1,1.5390352E2,3.4781662E2,3.701402E1,1.1971258E2,2.5181911E1,5.2173756E1,7.7599304E1,4.5678974E1,7.433844E1,1.843724E1,2.553779E1,1.15381E1],"tree_param":{"num_deleted":"0","num_feature":"19","num_nodes":"29","size_leaf_vector":"1"}},{"base_weights":[1.9938506E-2,4.167516E-1,-5.6492126E-1,7.5979364E-1,8.468435E-5,-1.2062644E-1,-8.4752333E-1,5.4112095E-1,1.0652759E0,2.19039E-1,-4.3065336E-1,-5.0275266E-1,3.3661819E-1,-1.1829927E0,-5.0691336E-1,4.7666352E-2,1.356561E-2,5.482334E-2,4.646154E-3,-8.868291E-3,2.2338841E-2,-4.427559E-3,-4.351007E-2,-2.9625198E-2,4.5438852E-2,4.1887216E-2,-3.6389746E-3,-6.063769E-2,-3.6809627E-2,-6.758155E-3,-4.3508757E-2],"categories":[],"categories_nodes":[],"categories_segments":[],"categories_sizes":[],"default_left":[0,0,0,0,0,0,0,0,0,0,0,0,0,0,0,0,0,0,0,0,0,0,0,0,0,0,0,0,0,0,0],"id":13,"left_children":[1,3,5,7,9,11,13,15,17,19,21,23,25,27,29,-1,-1,-1,-1,-1,-1,-1,-1,-1,-1,-1,-1,-1,-1,-1,-1],"loss_changes":[3.0101407E2,1.10446976E2,6.5728195E1,2.7733566E1,3.309537E1,3.5988384E1,3.5998886E1,2.7437218E1,5.2290497E0,2.1082165E1,1.770609E1,1.4736944E1,1.933105E1,1.2429352E0,2.1581161E1,0E0,0E0,0E0,0E0,0E0,0E0,0E0,0E0,0E0,0E0,0E0,0E0,0E0,0E0,0E0,0E0],"parents":[2147483647,0,0,1,1,2,2,3,3,4,4,5,5,6,6,7,7,8,8,9,9,10,10,11,11,12,12,13,13,14,14],"right_children":[2,4,6,8,10,12,14,16,18,20,22,24,26,28,30,-1,-1,-1,-1,-1,-1,-1,-1,-1,-1,-1,-1,-1,-1,-1,-1],"split_conditions":[1E0,1.7E1,2.3E1,7.845E1,1E0,1E0,7.38E1,7.915E1,1.0215E2,1E0,5E1,1.41465E3,1E0,1E0,5.9E1,4.7666352E-2,1.356561E-2,5.482334E-2,4.646154E-3,-8.868291E-3,2.2338841E-2,-4.427559E-3,-4.351007E-2,-2.9625198E-2,4.5438852E-2,4.1887216E-2,-3.6389746E-3,-6.063769E-2,-3.6809627E-2,-6.758155E-3,-4.3508757E-2],"split_indices":[10,1,1,2,13,17,2,3,2,14,1,3,13,0,1,0,0,0,0,0,0,0,0,0,0,0,0,0,0,0,0],"split_type":[0,0,0,0,0,0,0,0,0,0,0,0,0,0,0,0,0,0,0,0,0,0,0,0,0,0,0,0,0,0,0],"sum_hessian":[1.2950126E3,7.7171216E2,5.233004E2,4.227985E2,3.489137E2,2.0400279E2,3.1929764E2,2.4802597E2,1.7477254E2,2.3165134E2,1.1726235E2,1.1107567E2,9.292713E1,1.5961673E2,1.5968091E2,9.7118195E1,1.5090778E2,1.692168E2,5.5557413E0,8.460589E1,1.4704544E2,6.661615E1,5.06462E1,1.0498077E2,6.0949035E0,4.1312267E1,5.161486E1,1.4804146E2,1.1575261E1,7.959652E1,8.00844E1],"tree_param":{"num_deleted":"0","num_feature":"19","num_nodes":"31","size_leaf_vector":"1"}},{"base_weights":[5.9128045E-3,3.7942997E-1,-7.923103E-1,5.551294E-1,-8.9305595E-2,-5.247759E-1,-1.0771203E0,7.825977E-1,3.0037317E-1,-3.530682E-1,1.1340934E-1,-9.200584E-1,-1.4834648E-1,-1.1653875E0,-6.5359026E-1,2.9530544E-2,5.343769E-2,5.2378965E-3,4.0918797E-2,-2.1855963E-2,2.5557017E-2,1.914559E-2,-2.4743602E-2,-2.7297204E-2,-5.3467907E-2,4.1655626E-2,-1.0652503E-2,-5.974793E-2,-3.989048E-2,-1.6193492E-2,-6.513752E-2],"categories":[],"categories_nodes":[],"categories_segments":[],"categories_sizes":[],"default_left":[0,0,0,0,0,0,0,0,0,0,0,0,0,0,0,0,0,0,0,0,0,0,0,0,0,0,0,0,0,0,0],"id":14,"left_children":[1,3,5,7,9,11,13,15,17,19,21,23,25,27,29,-1,-1,-1,-1,-1,-1,-1,-1,-1,-1,-1,-1,-1,-1,-1,-1],"loss_changes":[3.814425E2,7.182571E1,3.0509735E1,3.650766E1,1.279102E1,3.1444176E1,6.587433E0,1.7736984E1,3.0384947E1,7.768774E0,2.2418758E1,5.188034E0,7.1569204E0,8.0107117E-1,7.3223515E0,0E0,0E0,0E0,0E0,0E0,0E0,0E0,0E0,0E0,0E0,0E0,0E0,0E0,0E0,0E0,0E0],"parents":[2147483647,0,0,1,1,2,2,3,3,4,4,5,5,6,6,7,7,8,8,9,9,10,10,11,11,12,12,13,13,14,14],"right_children":[2,4,6,8,10,12,14,16,18,20,22,24,26,28,30,-1,-1,-1,-1,-1,-1,-1,-1,-1,-1,-1,-1,-1,-1,-1,-1],"split_conditions":[1E0,1E0,2E0,1.1E1,1E0,2E0,1.0305E2,7.585E1,9.59E1,1E0,2.9E1,1E0,1.1656E3,1E0,7.8524E3,2.9530544E-2,5.343769E-2,5.2378965E-3,4.0918797E-2,-2.1855963E-2,2.5557017E-2,1.914559E-2,-2.4743602E-2,-2.7297204E-2,-5.3467907E-2,4.1655626E-2,-1.0652503E-2,-5.974793E-2,-3.989048E-2,-1.6193492E-2,-6.513752E-2],"split_indices":[16,10,16,1,17,15,2,2,2,0,1,10,3,0,3,0,0,0,0,0,0,0,0,0,0,0,0,0,0,0,0],"split_type":[0,0,0,0,0,0,0,0,0,0,0,0,0,0,0,0,0,0,0,0,0,0,0,0,0,0,0,0,0,0,0],"sum_hessian":[1.277356E3,8.7052893E2,4.0682703E2,6.33053E2,2.3747595E2,2.112414E2,1.9558562E2,3.3334332E2,2.9970966E2,1.0287649E2,1.3459947E2,1.0233592E2,1.0890547E2,1.6040442E2,3.518121E1,2.0133098E2,1.3201236E2,2.1842665E2,8.1283005E1,9.42082E1,8.668291E0,9.3530685E1,4.1068783E1,3.0518799E1,7.181712E1,6.0011353E0,1.0290434E2,1.4637767E2,1.4026747E1,2.4324997E1,1.0856212E1],"tree_param":{"num_deleted":"0","num_feature":"19","num_nodes":"31","size_leaf_vector":"1"}},{"base_weights":[7.82451E-3,3.890282E-1,-8.145869E-1,5.5265594E-1,-6.716726E-2,-1.0071906E0,-3.5824722E-1,8.46098E-1,3.734445E-1,-2.546606E-1,3.052483E-1,-7.9160076E-1,-1.2004039E0,-1.31884115E-2,-7.4187624E-1,5.1092435E-2,3.303669E-2,-5.104603E-3,2.7489146E-2,-2.3914962E-3,-5.015127E-2,2.2862246E-2,-3.90342E-2,-5.4956254E-2,-2.8118381E-2,-6.128074E-2,-3.9099563E-2,-2.227269E-2,7.304942E-3,-6.782868E-2,-3.0333286E-2],"categories":[],"categories_nodes":[],"categories_segments":[],"categories_sizes":[],"default_left":[0,0,0,0,0,0,0,0,0,0,0,0,0,0,0,0,0,0,0,0,0,0,0,0,0,0,0,0,0,0,0],"id":15,"left_children":[1,3,5,7,9,11,13,15,17,19,21,23,25,27,29,-1,-1,-1,-1,-1,-1,-1,-1,-1,-1,-1,-1,-1,-1,-1,-1],"loss_changes":[3.9947342E2,6.502678E1,3.510968E1,3.3387985E1,1.6188665E1,1.0847961E1,1.6051058E1,7.215683E0,3.357216E1,2.3790901E1,1.318503E1,9.025795E0,5.9680176E-1,4.533281E0,3.9506607E0,0E0,0E0,0E0,0E0,0E0,0E0,0E0,0E0,0E0,0E0,0E0,0E0,0E0,0E0,0E0,0E0],"parents":[2147483647,0,0,1,1,2,2,3,3,4,4,5,5,6,6,7,7,8,8,9,9,10,10,11,11,12,12,13,13,14,14],"right_children":[2,4,6,8,10,12,14,16,18,20,22,24,26,28,30,-1,-1,-1,-1,-1,-1,-1,-1,-1,-1,-1,-1,-1,-1,-1,-1],"split_conditions":[1E0,1E0,9.35E1,6E0,7.915E1,2E0,6.59725E3,2E0,7.075E1,1.8E1,5.1E1,5.365E1,1E0,1E0,1.0215E2,5.1092435E-2,3.303669E-2,-5.104603E-3,2.7489146E-2,-2.3914962E-3,-5.015127E-2,2.2862246E-2,-3.90342E-2,-5.4956254E-2,-2.8118381E-2,-6.128074E-2,-3.9099563E-2,-2.227269E-2,7.304942E-3,-6.782868E-2,-3.0333286E-2],"split_indices":[16,13,2,1,2,16,3,1,2,1,1,2,0,17,2,0,0,0,0,0,0,0,0,0,0,0,0,0,0,0,0],"split_type":[0,0,0,0,0,0,0,0,0,0,0,0,0,0,0,0,0,0,0,0,0,0,0,0,0,0,0,0,0,0,0],"sum_hessian":[1.2722013E3,8.696353E2,4.0256595E2,6.3990375E2,2.2973152E2,2.8223718E2,1.2032874E2,2.412152E2,3.9868857E2,1.5301302E2,7.671851E1,1.3580327E2,1.4643393E2,6.38935E1,5.6435246E1,1.2150198E2,1.1971321E2,1.0796298E2,2.907256E2,1.2071429E2,3.229872E1,6.780664E1,8.911877E0,5.6376896E1,7.942637E1,1.362926E2,1.0141324E1,1.6720835E1,4.7172665E1,8.546754E0,4.7888493E1],"tree_param":{"num_deleted":"0","num_feature":"19","num_nodes":"31","size_leaf_vector":"1"}},{"base_weights":[-3.0738139E-3,3.5760832E-1,-7.626566E-1,5.2345747E-1,-8.220998E-2,-4.7593603E-1,-1.0737693E0,8.093618E-1,3.4117416E-1,1.8314193E-1,-2.5175652E-1,-8.394883E-1,-1.3953064E-1,-6.0594566E-2,-8.534653E-1,2.566655E-2,4.898536E-2,-1.609506E-3,2.666363E-2,-6.5238136E-3,2.4511693E-2,1.3180303E-2,-1.9949172E-2,-5.5264987E-2,-2.7393458E-2,-8.618866E-3,7.332136E-2,1.6944854E-2,-4.9701005E-2],"categories":[],"categories_nodes":[],"categories_segments":[],"categories_sizes":[],"default_left":[0,0,0,0,0,0,0,0,0,0,0,0,0,0,0,0,0,0,0,0,0,0,0,0,0,0,0,0,0],"id":16,"left_children":[1,3,5,7,9,11,13,15,17,19,21,23,25,-1,27,-1,-1,-1,-1,-1,-1,-1,-1,-1,-1,-1,-1,-1,-1],"loss_changes":[3.4005615E2,6.1432648E1,3.5136536E1,3.1581345E1,1.0453073E1,2.5536896E1,4.7734528E0,1.1461899E1,2.6914394E1,8.804994E0,1.0846091E1,7.1935806E0,6.0631123E0,0E0,1.3230076E1,0E0,0E0,0E0,0E0,0E0,0E0,0E0,0E0,0E0,0E0,0E0,0E0,0E0,0E0],"parents":[2147483647,0,0,1,1,2,2,3,3,4,4,5,5,6,6,7,7,8,8,9,9,10,10,11,11,12,12,14,14],"right_children":[2,4,6,8,10,12,14,16,18,20,22,24,26,-1,28,-1,-1,-1,-1,-1,-1,-1,-1,-1,-1,-1,-1,-1,-1],"split_conditions":[1E0,1E0,2E0,6E0,1E0,2E0,4.99025E3,1E0,1E0,1E0,2.47E1,2E0,8.05855E3,-6.0594566E-2,5.9E1,2.566655E-2,4.898536E-2,-1.609506E-3,2.666363E-2,-6.5238136E-3,2.4511693E-2,1.3180303E-2,-1.9949172E-2,-5.5264987E-2,-2.7393458E-2,-8.618866E-3,7.332136E-2,1.6944854E-2,-4.9701005E-2],"split_indices":[16,10,16,1,11,15,3,9,8,9,3,18,3,0,1,0,0,0,0,0,0,0,0,0,0,0,0,0,0],"split_type":[0,0,0,0,0,0,0,0,0,0,0,0,0,0,0,0,0,0,0,0,0,0,0,0,0,0,0,0,0],"sum_hessian":[1.2392306E3,8.40605E2,3.9862564E2,6.1028503E2,2.3031989E2,2.0876146E2,1.898642E2,2.3626785E2,3.740172E2,8.9759674E1,1.4056021E2,9.961372E1,1.0914773E2,1.13932236E2,7.593196E1,8.776347E1,1.4850438E2,1.2734353E2,2.4667369E2,4.46925E1,4.5067177E1,3.1056736E1,1.0950348E2,5.0653114E1,4.8960613E1,1.0783485E2,1.3128837E0,7.858145E0,6.8073814E1],"tree_param":{"num_deleted":"0","num_feature":"19","num_nodes":"29","size_leaf_vector":"1"}},{"base_weights":[-4.0652417E-3,3.2423216E-1,-7.149206E-1,4.796143E-1,-8.0167115E-2,-4.4543156E-1,-1.0121974E0,9.246819E-1,3.6937016E-1,-1.76044E-1,4.9667725E-1,-8.6804664E-1,-6.908006E-2,-1.1294533E0,-6.6382295E-1,4.1269314E-2,6.1536223E-2,1.1556376E-3,2.6750106E-2,-5.3419895E-3,-4.848821E-2,4.9466062E-2,-1.0397337E-2,-2.5394304E-2,-5.6824952E-2,-2.521413E-2,4.7600414E-3,-4.306859E-2,-5.817132E-2,1.898074E-2,-3.8508203E-2],"categories":[],"categories_nodes":[],"categories_segments":[],"categories_sizes":[],"default_left":[0,0,0,0,0,0,0,0,0,0,0,0,0,0,0,0,0,0,0,0,0,0,0,0,0,0,0,0,0,0,0],"id":17,"left_children":[1,3,5,7,9,11,13,15,17,19,21,23,25,27,29,-1,-1,-1,-1,-1,-1,-1,-1,-1,-1,-1,-1,-1,-1,-1,-1],"loss_changes":[2.878104E2,5.30506E1,3.0762863E1,2.9570038E1,1.3086298E1,3.272832E1,6.785843E0,2.6417618E0,2.810456E1,1.1007164E1,1.1924489E1,8.803192E0,7.9217415E0,2.4189758E-1,5.7161293E0,0E0,0E0,0E0,0E0,0E0,0E0,0E0,0E0,0E0,0E0,0E0,0E0,0E0,0E0,0E0,0E0],"parents":[2147483647,0,0,1,1,2,2,3,3,4,4,5,5,6,6,7,7,8,8,9,9,10,10,11,11,12,12,13,13,14,14],"right_children":[2,4,6,8,10,12,14,16,18,20,22,24,26,28,30,-1,-1,-1,-1,-1,-1,-1,-1,-1,-1,-1,-1,-1,-1,-1,-1],"split_conditions":[1E0,1E0,2E0,9.4E1,1E0,2E0,9.385E1,7.56E1,7.355E1,3.35565E3,2E0,1E0,7.94E1,1E0,9.63E1,4.1269314E-2,6.1536223E-2,1.1556376E-3,2.6750106E-2,-5.3419895E-3,-4.848821E-2,4.9466062E-2,-1.0397337E-2,-2.5394304E-2,-5.6824952E-2,-2.521413E-2,4.7600414E-3,-4.306859E-2,-5.817132E-2,1.898074E-2,-3.8508203E-2],"split_indices":[16,10,16,3,0,14,2,2,2,3,11,9,2,10,2,0,0,0,0,0,0,0,0,0,0,0,0,0,0,0,0],"split_type":[0,0,0,0,0,0,0,0,0,0,0,0,0,0,0,0,0,0,0,0,0,0,0,0,0,0,0,0,0,0,0],"sum_hessian":[1.2312758E3,8.426533E2,3.8862238E2,6.086183E2,2.3403508E2,2.0514845E2,1.8347394E2,1.1936025E2,4.8925803E2,2.0127596E2,3.2759117E1,9.6019325E1,1.0912913E2,1.355937E2,4.7880226E1,9.291192E1,2.6448336E1,1.5867787E2,3.3058017E2,1.8617778E2,1.5098177E1,1.904182E1,1.3717297E1,4.2240543E1,5.3778786E1,2.9338305E1,7.9790825E1,1.8214897E1,1.1737881E2,4.190685E0,4.368954E1],"tree_param":{"num_deleted":"0","num_feature":"19","num_nodes":"31","size_leaf_vector":"1"}},{"base_weights":[-1.2106547E-4,3.7385663E-1,-4.189889E-1,5.1836723E-1,-3.3240318E-1,-8.830783E-2,-7.450235E-1,1.4224443E-1,6.5585256E-1,4.1592947E-1,-7.204972E-1,-3.9610192E-1,1.8149273E-1,-1.0830262E0,-4.3457034E-1,1.5405155E-2,-1.969714E-2,2.4472853E-2,4.2617913E-2,-2.7531747E-2,2.650301E-2,-2.4520042E-3,-4.1915517E-2,-3.1628942E-3,-4.9269382E-2,-2.0007094E-2,1.7720697E-2,-5.5757105E-2,-3.2368865E-2,-3.2236327E-3,-4.218219E-2],"categories":[],"categories_nodes":[],"categories_segments":[],"categories_sizes":[],"default_left":[0,0,0,0,0,0,0,0,0,0,0,0,0,0,0,0,0,0,0,0,0,0,0,0,0,0,0,0,0,0,0],"id":18,"left_children":[1,3,5,7,9,11,13,15,17,19,21,23,25,27,29,-1,-1,-1,-1,-1,-1,-1,-1,-1,-1,-1,-1,-1,-1,-1,-1],"loss_changes":[1.9413202E2,6.69955E1,6.2958008E1,2.803305E1,3.2775093E1,2.4266314E1,3.0402512E1,1.3183046E1,1.2597656E1,4.5744247E0,5.8127365E0,2.6692368E1,1.5825996E1,1.2394867E0,2.3416338E1,0E0,0E0,0E0,0E0,0E0,0E0,0E0,0E0,0E0,0E0,0E0,0E0,0E0,0E0,0E0,0E0],"parents":[2147483647,0,0,1,1,2,2,3,3,4,4,5,5,6,6,7,7,8,8,9,9,10,10,11,11,12,12,13,13,14,14],"right_children":[2,4,6,8,10,12,14,16,18,20,22,24,26,28,30,-1,-1,-1,-1,-1,-1,-1,-1,-1,-1,-1,-1,-1,-1,-1,-1],"split_conditions":[2.3E1,2E0,1E0,1E0,2E0,2E0,7.38E1,1E0,7.895E1,1.945E1,1E0,5.5E1,1E0,1E0,5.9E1,1.5405155E-2,-1.969714E-2,2.4472853E-2,4.2617913E-2,-2.7531747E-2,2.650301E-2,-2.4520042E-3,-4.1915517E-2,-3.1628942E-3,-4.9269382E-2,-2.0007094E-2,1.7720697E-2,-5.5757105E-2,-3.2368865E-2,-3.2236327E-3,-4.218219E-2],"split_indices":[1,9,10,17,1,18,2,11,2,2,18,1,9,0,1,0,0,0,0,0,0,0,0,0,0,0,0,0,0,0,0],"split_type":[0,0,0,0,0,0,0,0,0,0,0,0,0,0,0,0,0,0,0,0,0,0,0,0,0,0,0,0,0,0,0],"sum_hessian":[1.2372943E3,6.5373114E2,5.835632E2,5.4291016E2,1.1082093E2,2.9034808E2,2.9321512E2,1.458737E2,3.9703647E2,3.7821274E1,7.299966E1,1.3540598E2,1.549421E2,1.3918756E2,1.5402756E2,1.1173586E2,3.4137844E1,2.168797E2,1.8015678E2,3.590341E0,3.4230934E1,1.1107942E1,6.1891716E1,8.723865E1,4.8167336E1,3.520687E1,1.1973522E2,1.2817853E2,1.1009033E1,8.1473915E1,7.2553635E1],"tree_param":{"num_deleted":"0","num_feature":"19","num_nodes":"31","size_leaf_vector":"1"}},{"base_weights":[-2.1864276E-3,3.04007E-1,-6.7184114E-1,4.741858E-2,5.236063E-1,-3.9855763E-1,-9.85099E-1,4.3769374E-1,-2.3705062E-1,8.221943E-1,2.754375E-1,-7.9678917E-1,-7.547944E-2,-1.0889975E0,-6.796019E-1,-4.3344703E-2,2.4466489E-2,1.6473839E-2,-2.21893E-2,1.1170514E-2,4.683641E-2,-6.7033134E-3,1.994676E-2,-1.7997433E-2,-4.9846467E-2,-1.1234746E-3,-4.6191093E-2,-6.19239E-2,-5.026873E-2,2.2762494E-2,-3.9708216E-2],"categories":[],"categories_nodes":[],"categories_segments":[],"categories_sizes":[],"default_left":[0,0,0,0,0,0,0,0,0,0,0,0,0,0,0,0,0,0,0,0,0,0,0,0,0,0,0,0,0,0,0],"id":19,"left_children":[1,3,5,7,9,11,13,15,17,19,21,23,25,27,29,-1,-1,-1,-1,-1,-1,-1,-1,-1,-1,-1,-1,-1,-1,-1,-1],"loss_changes":[2.4757321E2,4.6662178E1,3.2040207E1,4.264743E1,3.284928E1,2.6188446E1,4.8410645E0,1.1330921E1,2.6181683E1,1.3650818E1,1.2457315E1,7.621254E0,5.0942183E0,3.7428284E-1,6.5090923E0,0E0,0E0,0E0,0E0,0E0,0E0,0E0,0E0,0E0,0E0,0E0,0E0,0E0,0E0,0E0,0E0],"parents":[2147483647,0,0,1,1,2,2,3,3,4,4,5,5,6,6,7,7,8,8,9,9,10,10,11,11,12,12,13,13,14,14],"right_children":[2,4,6,8,10,12,14,16,18,20,22,24,26,28,30,-1,-1,-1,-1,-1,-1,-1,-1,-1,-1,-1,-1,-1,-1,-1,-1],"split_conditions":[1E0,7.355E1,2E0,4E0,1.20815E3,7.38E1,9.385E1,1.945E1,1E0,1E0,1E0,1E0,7.1E1,2.45E1,9.63E1,-4.3344703E-2,2.4466489E-2,1.6473839E-2,-2.21893E-2,1.1170514E-2,4.683641E-2,-6.7033134E-3,1.994676E-2,-1.7997433E-2,-4.9846467E-2,-1.1234746E-3,-4.6191093E-2,-6.19239E-2,-5.026873E-2,2.2762494E-2,-3.9708216E-2],"split_indices":[16,2,16,1,3,2,2,2,7,17,8,13,1,2,2,0,0,0,0,0,0,0,0,0,0,0,0,0,0,0,0],"split_type":[0,0,0,0,0,0,0,0,0,0,0,0,0,0,0,0,0,0,0,0,0,0,0,0,0,0,0,0,0,0,0],"sum_hessian":[1.2054197E3,8.2756793E2,3.7785178E2,3.8220294E2,4.45365E2,2.0301527E2,1.748365E2,1.6090796E2,2.2129497E2,2.0109796E2,2.4426704E2,9.02748E1,1.1274047E2,1.285518E2,4.628471E1,5.525188E0,1.5538278E2,5.90055E1,1.6228947E2,3.2763065E1,1.6833488E2,5.657741E1,1.8768964E2,2.9243748E1,6.1031055E1,1.0707614E2,5.6643267E0,4.116212E1,8.738968E1,3.971301E0,4.2313408E1],"tree_param":{"num_deleted":"0","num_feature":"19","num_nodes":"31","size_leaf_vector":"1"}},{"base_weights":[-9.459356E-3,2.8860092E-1,-6.7688614E-1,4.2684248E-1,-7.074727E-2,-4.3348867E-1,-9.6058106E-1,7.091208E-1,2.4956204E-1,-1.2254175E0,-3.0088428E-2,-7.7026546E-1,-1.4514808E-1,-1.0886263E0,-6.0575515E-1,1.9361977E-2,4.4384744E-2,-4.1964897E-3,2.2636248E-2,-9.558755E-4,-7.427379E-2,-5.323093E-3,2.1050071E-2,-5.0625082E-2,-2.5594536E-2,3.0614749E-2,-1.0937859E-2,-4.9056187E-2,-6.232784E-2,2.4994934E-2,-3.567986E-2],"categories":[],"categories_nodes":[],"categories_segments":[],"categories_sizes":[],"default_left":[0,0,0,0,0,0,0,0,0,0,0,0,0,0,0,0,0,0,0,0,0,0,0,0,0,0,0,0,0,0,0],"id":20,"left_children":[1,3,5,7,9,11,13,15,17,19,21,23,25,27,29,-1,-1,-1,-1,-1,-1,-1,-1,-1,-1,-1,-1,-1,-1,-1,-1],"loss_changes":[2.3978598E2,4.142434E1,2.5277878E1,2.9944069E1,1.0871785E1,1.9513458E1,7.1100464E0,1.2971466E1,2.5191957E1,2.4431343E0,7.812891E0,5.3016357E0,6.2732143E0,8.891449E-1,6.0325127E0,0E0,0E0,0E0,0E0,0E0,0E0,0E0,0E0,0E0,0E0,0E0,0E0,0E0,0E0,0E0,0E0],"parents":[2147483647,0,0,1,1,2,2,3,3,4,4,5,5,6,6,7,7,8,8,9,9,10,10,11,11,12,12,13,13,14,14],"right_children":[2,4,6,8,10,12,14,16,18,20,22,24,26,28,30,-1,-1,-1,-1,-1,-1,-1,-1,-1,-1,-1,-1,-1,-1,-1,-1],"split_conditions":[1E0,1E0,2E0,6E0,1.935E1,2E0,9.385E1,6.57E1,7.78E1,1.9E1,1E0,2E0,2.2E1,6.7E1,9.63E1,1.9361977E-2,4.4384744E-2,-4.1964897E-3,2.2636248E-2,-9.558755E-4,-7.427379E-2,-5.323093E-3,2.1050071E-2,-5.0625082E-2,-2.5594536E-2,3.0614749E-2,-1.0937859E-2,-4.9056187E-2,-6.232784E-2,2.4994934E-2,-3.567986E-2],"split_indices":[16,10,16,1,2,15,2,2,2,2,0,18,1,1,2,0,0,0,0,0,0,0,0,0,0,0,0,0,0,0,0],"split_type":[0,0,0,0,0,0,0,0,0,0,0,0,0,0,0,0,0,0,0,0,0,0,0,0,0,0,0,0,0,0,0],"sum_hessian":[1.203376E3,8.322682E2,3.7110776E2,6.0090985E2,2.3135834E2,2.0110052E2,1.7000725E2,2.3065106E2,3.702588E2,6.878444E0,2.2447989E2,9.198835E1,1.09112175E2,1.23405945E2,4.66013E1,8.343221E1,1.4721886E2,1.4039209E2,2.2986668E2,1.4102774E0,5.468167E0,1.9262996E2,3.1849936E1,4.597051E1,4.601784E1,9.016236E0,1.0009593E2,7.771681E1,4.568913E1,3.8183246E0,4.2782974E1],"tree_param":{"num_deleted":"0","num_feature":"19","num_nodes":"31","size_leaf_vector":"1"}},{"base_weights":[-1.0446982E-2,2.6896986E-1,-6.360498E-1,4.131766E-1,-1.1489319E-1,-4.0243426E-1,-9.0973914E-1,8.7875664E-1,3.0773857E-1,-1.8938866E-3,-7.014714E-1,-7.586699E-1,-1.16990566E-1,-1.0075912E0,-4.9235174E-1,3.1549152E-2,5.3113252E-2,1.2121772E-3,2.6368305E-2,1.4854877E-2,-1.4902013E-2,-4.339265E-2,9.501091E-3,-1.3116953E-2,-4.8597284E-2,-2.9076854E-2,2.2055164E-3,-5.2169114E-2,-2.9390885E-2,7.5677567E-4,-5.4880362E-2],"categories":[],"categories_nodes":[],"categories_segments":[],"categories_sizes":[],"default_left":[0,0,0,0,0,0,0,0,0,0,0,0,0,0,0,0,0,0,0,0,0,0,0,0,0,0,0,0,0,0,0],"id":21,"left_children":[1,3,5,7,9,11,13,15,17,19,21,23,25,27,29,-1,-1,-1,-1,-1,-1,-1,-1,-1,-1,-1,-1,-1,-1,-1,-1],"loss_changes":[2.08688E2,4.57313E1,2.3200348E1,2.9189705E1,1.4988675E1,2.0313606E1,6.4038086E0,4.3437347E0,3.054935E1,1.6967508E1,5.5828114E0,9.173676E0,8.450356E0,1.428482E0,1.047232E1,0E0,0E0,0E0,0E0,0E0,0E0,0E0,0E0,0E0,0E0,0E0,0E0,0E0,0E0,0E0,0E0],"parents":[2147483647,0,0,1,1,2,2,3,3,4,4,5,5,6,6,7,7,8,8,9,9,10,10,11,11,12,12,13,13,14,14],"right_children":[2,4,6,8,10,12,14,16,18,20,22,24,26,28,30,-1,-1,-1,-1,-1,-1,-1,-1,-1,-1,-1,-1,-1,-1,-1,-1],"split_conditions":[1E0,1E0,2E0,2E0,3.2E1,7.355E1,1.0305E2,6.36E1,7.78E1,1E0,1.0815E2,1E0,1E0,1E0,1.098E2,3.1549152E-2,5.3113252E-2,1.2121772E-3,2.6368305E-2,1.4854877E-2,-1.4902013E-2,-4.339265E-2,9.501091E-3,-1.3116953E-2,-4.8597284E-2,-2.9076854E-2,2.2055164E-3,-5.2169114E-2,-2.9390885E-2,7.5677567E-4,-5.4880362E-2],"split_indices":[16,13,16,1,1,2,2,2,2,4,2,13,18,0,2,0,0,0,0,0,0,0,0,0,0,0,0,0,0,0,0],"split_type":[0,0,0,0,0,0,0,0,0,0,0,0,0,0,0,0,0,0,0,0,0,0,0,0,0,0,0,0,0,0,0],"sum_hessian":[1.1918615E3,8.242788E2,3.6758264E2,5.99127E2,2.2515181E2,1.996424E2,1.6794025E2,1.0927403E2,4.8985297E2,1.8962532E2,3.5526478E1,8.807115E1,1.1157124E2,1.3490025E2,3.3039997E1,4.8384106E1,6.0889927E1,2.1431967E2,2.755333E2,9.435782E1,9.526751E1,2.9961252E1,5.565225E0,2.7140469E1,6.0930687E1,2.8057003E1,8.3514244E1,1.22933044E2,1.1967207E1,1.8501812E1,1.4538183E1],"tree_param":{"num_deleted":"0","num_feature":"19","num_nodes":"31","size_leaf_vector":"1"}},{"base_weights":[6.3004633E-3,2.9513282E-1,-4.3326196E-1,6.107569E-1,6.0750756E-2,-8.427662E-2,-6.532026E-1,4.0857786E-1,8.808413E-1,-4.1572013E-1,2.3031299E-1,-2.14781E-1,5.171006E-1,-9.485531E-1,-4.1314283E-1,3.068618E-2,-5.769828E-3,2.4423966E-2,4.8788663E-2,2.3867039E-3,-3.837894E-2,1.4562683E-2,-4.0687222E-2,1.926114E-2,-2.038127E-2,1.7577928E-2,5.1621523E-2,-3.173083E-2,-5.196739E-2,-4.191728E-3,-3.696209E-2],"categories":[],"categories_nodes":[],"categories_segments":[],"categories_sizes":[],"default_left":[0,0,0,0,0,0,0,0,0,0,0,0,0,0,0,0,0,0,0,0,0,0,0,0,0,0,0,0,0,0,0],"id":22,"left_children":[1,3,5,7,9,11,13,15,17,19,21,23,25,27,29,-1,-1,-1,-1,-1,-1,-1,-1,-1,-1,-1,-1,-1,-1,-1,-1],"loss_changes":[1.5127766E2,5.3155197E1,3.621144E1,1.6366043E1,3.3522152E1,1.4536729E1,2.0147095E1,1.910096E1,4.37545E0,1.7802942E1,1.969294E1,1.771433E1,2.4581041E0,3.0205994E0,1.7288591E1,0E0,0E0,0E0,0E0,0E0,0E0,0E0,0E0,0E0,0E0,0E0,0E0,0E0,0E0,0E0,0E0],"parents":[2147483647,0,0,1,1,2,2,3,3,4,4,5,5,6,6,7,7,8,8,9,9,10,10,11,11,12,12,13,13,14,14],"right_children":[2,4,6,8,10,12,14,16,18,20,22,24,26,28,30,-1,-1,-1,-1,-1,-1,-1,-1,-1,-1,-1,-1,-1,-1,-1,-1],"split_conditions":[1E0,1.1E1,2E1,7.47E1,1E0,7.96E1,7.015E1,2.1645E2,1E0,1.25935E3,6.9E1,2.47E1,1E0,1E0,5.5E1,3.068618E-2,-5.769828E-3,2.4423966E-2,4.8788663E-2,2.3867039E-3,-3.837894E-2,1.4562683E-2,-4.0687222E-2,1.926114E-2,-2.038127E-2,1.7577928E-2,5.1621523E-2,-3.173083E-2,-5.196739E-2,-4.191728E-3,-3.696209E-2],"split_indices":[13,1,1,2,9,2,2,3,17,3,1,3,0,12,1,0,0,0,0,0,0,0,0,0,0,0,0,0,0,0,0],"split_type":[0,0,0,0,0,0,0,0,0,0,0,0,0,0,0,0,0,0,0,0,0,0,0,0,0,0,0,0,0,0,0],"sum_hessian":[1.1895323E3,7.180421E2,4.7149017E2,3.0530536E2,4.127368E2,1.8280772E2,2.8868243E2,1.7603922E2,1.2926613E2,1.0794867E2,3.0478812E2,1.5073886E2,3.2068867E1,1.2811214E2,1.6057031E2,1.2638561E2,4.9653595E1,2.6380152E1,1.0288599E2,4.695964E1,6.098903E1,2.8866034E2,1.6127796E1,3.642156E1,1.143173E2,2.554509E1,6.5237784E0,3.053217E1,9.757996E1,8.051747E1,8.005283E1],"tree_param":{"num_deleted":"0","num_feature":"19","num_nodes":"31","size_leaf_vector":"1"}},{"base_weights":[3.7026694E-3,2.5650495E-1,-5.772201E-1,3.9011508E-1,-8.888212E-2,-3.2762986E-1,-8.745785E-1,6.024219E-1,2.0332587E-1,1.6139704E-1,-3.6352894E-1,-7.0870644E-1,-1.1984931E-2,-1.0276998E0,-7.009034E-1,1.7598506E-2,3.788556E-2,-1.156358E-2,1.5727933E-2,-1.6968608E-3,2.8296748E-2,-4.3221388E-2,-8.383211E-3,-4.8340064E-2,-2.1037841E-2,-2.2218113E-3,7.495621E-2,-4.422163E-2,-5.716291E-2,-1.0211712E-2,-4.9730342E-2],"categories":[],"categories_nodes":[],"categories_segments":[],"categories_sizes":[],"default_left":[0,0,0,0,0,0,0,0,0,0,0,0,0,0,0,0,0,0,0,0,0,0,0,0,0,0,0,0,0,0,0],"id":23,"left_children":[1,3,5,7,9,11,13,15,17,19,21,23,25,27,29,-1,-1,-1,-1,-1,-1,-1,-1,-1,-1,-1,-1,-1,-1,-1,-1],"loss_changes":[1.7270752E2,3.7848213E1,2.617897E1,2.331588E1,1.5825796E1,2.350323E1,3.591156E0,1.0472008E1,1.5344823E1,9.557402E0,1.0614894E1,6.1731873E0,5.3591866E0,3.7982178E-1,1.1336803E1,0E0,0E0,0E0,0E0,0E0,0E0,0E0,0E0,0E0,0E0,0E0,0E0,0E0,0E0,0E0,0E0],"parents":[2147483647,0,0,1,1,2,2,3,3,4,4,5,5,6,6,7,7,8,8,9,9,10,10,11,11,12,12,13,13,14,14],"right_children":[2,4,6,8,10,12,14,16,18,20,22,24,26,28,30,-1,-1,-1,-1,-1,-1,-1,-1,-1,-1,-1,-1,-1,-1,-1,-1],"split_conditions":[1E0,1E0,2E0,1E1,1E0,2E0,4.45425E3,1E0,1E0,2E0,2E0,2E0,8.05855E3,1E0,6.8E1,1.7598506E-2,3.788556E-2,-1.156358E-2,1.5727933E-2,-1.6968608E-3,2.8296748E-2,-4.3221388E-2,-8.383211E-3,-4.8340064E-2,-2.1037841E-2,-2.2218113E-3,7.495621E-2,-4.422163E-2,-5.716291E-2,-1.0211712E-2,-4.9730342E-2],"split_indices":[16,13,16,1,4,15,3,9,17,14,18,18,3,6,1,0,0,0,0,0,0,0,0,0,0,0,0,0,0,0,0],"split_type":[0,0,0,0,0,0,0,0,0,0,0,0,0,0,0,0,0,0,0,0,0,0,0,0,0,0,0,0,0,0,0],"sum_hessian":[1.1740042E3,8.1841144E2,3.5559265E2,5.900327E2,2.2837875E2,1.9446696E2,1.6112569E2,2.7511203E2,3.1492065E2,1.19705925E2,1.0867283E2,8.753777E1,1.06929184E2,8.3016464E1,7.810923E1,1.06543846E2,1.6856818E2,6.395663E1,2.5096404E2,8.134431E1,3.8361618E1,2.9589108E1,7.9083725E1,4.4918716E1,4.261906E1,1.0563133E2,1.2978549E0,4.0928078E1,4.2088387E1,2.9655493E1,4.845374E1],"tree_param":{"num_deleted":"0","num_feature":"19","num_nodes":"31","size_leaf_vector":"1"}},{"base_weights":[-2.6236435E-2,2.3288292E-1,-6.32453E-1,3.6217457E-1,-9.0551235E-2,-4.9852487E-1,-5.3358495E-2,2.9641874E-2,4.7707203E-1,-1.180277E0,-5.161796E-2,-3.162013E-1,-7.6334363E-1,5.6424807E-3,-5.535493E-2,7.008154E-3,2.9047022E-2,-7.7450224E-3,-7.108007E-2,1.0957421E-2,-9.80763E-3,-2.6261637E-2,-3.6210876E-3,-4.6427537E-2,-1.8394206E-2],"categories":[],"categories_nodes":[],"categories_segments":[],"categories_sizes":[],"default_left":[0,0,0,0,0,0,0,0,0,0,0,0,0,0,0,0,0,0,0,0,0,0,0,0,0],"id":24,"left_children":[1,3,5,7,9,11,-1,13,15,17,19,21,23,-1,-1,-1,-1,-1,-1,-1,-1,-1,-1,-1,-1],"loss_changes":[1.8211665E2,3.4000095E1,1.967958E1,2.2165253E1,9.814897E0,1.2663086E1,0E0,1.4325657E1,1.5013924E1,1.7553844E0,8.879324E0,8.1149845E0,6.732136E0,0E0,0E0,0E0,0E0,0E0,0E0,0E0,0E0,0E0,0E0,0E0,0E0],"parents":[2147483647,0,0,1,1,2,2,3,3,4,4,5,5,7,7,8,8,9,9,10,10,11,11,12,12],"right_children":[2,4,6,8,10,12,-1,14,16,18,20,22,24,-1,-1,-1,-1,-1,-1,-1,-1,-1,-1,-1,-1],"split_conditions":[1E0,1E0,2E0,2E0,1.935E1,2E0,-5.3358495E-2,5.5E1,1E0,1.9E1,6E0,2E0,1.0305E2,5.6424807E-3,-5.535493E-2,7.008154E-3,2.9047022E-2,-7.7450224E-3,-7.108007E-2,1.0957421E-2,-9.80763E-3,-2.6261637E-2,-3.6210876E-3,-4.6427537E-2,-1.8394206E-2],"split_indices":[16,10,9,18,2,16,0,1,17,2,1,18,2,0,0,0,0,0,0,0,0,0,0,0,0],"split_type":[0,0,0,0,0,0,0,0,0,0,0,0,0,0,0,0,0,0,0,0,0,0,0,0,0],"sum_hessian":[1.1574323E3,8.112779E2,3.461543E2,5.795036E2,2.317743E2,2.6626868E2,7.988561E1,1.491362E2,4.303674E2,6.9838533E0,2.2479045E2,1.5899625E2,1.0727242E2,1.3980351E2,9.332686E0,1.0196893E2,3.2839847E2,1.6433234E0,5.34053E0,7.805277E1,1.4673767E2,8.4977135E1,7.401912E1,7.471251E1,3.2559917E1],"tree_param":{"num_deleted":"0","num_feature":"19","num_nodes":"25","size_leaf_vector":"1"}},{"base_weights":[2.1947665E-2,2.714331E-1,-5.6720334E-1,3.996814E-1,-6.384411E-2,-7.0769286E-1,-1.4624193E-1,8.277232E-1,3.0621904E-1,-1.5138792E-1,4.1007572E-1,-5.108878E-1,-9.386731E-1,1.8529683E-1,-4.26155E-1,2.9483689E-2,5.025774E-2,5.2757044E-3,2.3127107E-2,1.7624953E-3,-3.0647501E-2,2.9617017E-2,-3.4395482E-2,-5.3071525E-2,-1.9705513E-2,-4.918748E-2,-2.1176465E-2,-1.12279365E-2,3.4753263E-2,-1.148095E-2,-5.330197E-2],"categories":[],"categories_nodes":[],"categories_segments":[],"categories_sizes":[],"default_left":[0,0,0,0,0,0,0,0,0,0,0,0,0,0,0,0,0,0,0,0,0,0,0,0,0,0,0,0,0,0,0],"id":25,"left_children":[1,3,5,7,9,11,13,15,17,19,21,23,25,27,29,-1,-1,-1,-1,-1,-1,-1,-1,-1,-1,-1,-1,-1,-1,-1,-1],"loss_changes":[1.7033775E2,3.5029358E1,2.0286255E1,2.33087E1,9.442623E0,1.1259399E1,8.201934E0,3.8407822E0,1.5168068E1,1.6524857E1,7.516489E0,8.687073E0,2.3143387E0,8.673559E0,5.761936E0,0E0,0E0,0E0,0E0,0E0,0E0,0E0,0E0,0E0,0E0,0E0,0E0,0E0,0E0,0E0,0E0],"parents":[2147483647,0,0,1,1,2,2,3,3,4,4,5,5,6,6,7,7,8,8,9,9,10,10,11,11,12,12,13,13,14,14],"right_children":[2,4,6,8,10,12,14,16,18,20,22,24,26,28,30,-1,-1,-1,-1,-1,-1,-1,-1,-1,-1,-1,-1,-1,-1,-1,-1],"split_conditions":[1E0,1E0,9.995E1,2E0,9.735E1,2E0,6.51975E3,6.36E1,7.78E1,1.8E1,5.4602E3,2.395E1,1E0,5.4E1,1E0,2.9483689E-2,5.025774E-2,5.2757044E-3,2.3127107E-2,1.7624953E-3,-3.0647501E-2,2.9617017E-2,-3.4395482E-2,-5.3071525E-2,-1.9705513E-2,-4.918748E-2,-2.1176465E-2,-1.12279365E-2,3.4753263E-2,-1.148095E-2,-5.330197E-2],"split_indices":[16,13,2,1,2,16,3,2,2,1,3,2,0,1,0,0,0,0,0,0,0,0,0,0,0,0,0,0,0,0,0],"split_type":[0,0,0,0,0,0,0,0,0,0,0,0,0,0,0,0,0,0,0,0,0,0,0,0,0,0,0,0,0,0,0],"sum_hessian":[1.1568341E3,8.1306714E2,3.43767E2,5.879687E2,2.2509848E2,2.5723694E2,8.6530075E1,1.03965935E2,4.8400272E2,1.9057541E2,3.4523064E1,1.4062782E2,1.1660911E2,3.9766853E1,4.676322E1,4.6245045E1,5.772089E1,2.1265173E2,2.7135098E2,1.3636024E2,5.4215168E1,3.0003098E1,4.5199676E0,2.3193537E1,1.1743429E2,1.0639002E2,1.0219089E1,2.2353806E1,1.7413046E1,3.6814693E1,9.948529E0],"tree_param":{"num_deleted":"0","num_feature":"19","num_nodes":"31","size_leaf_vector":"1"}},{"base_weights":[1.5919315E-2,2.4561758E-1,-5.230326E-1,3.9891425E-1,-5.225087E-3,-3.8654575E-1,-9.9972755E-1,7.9318106E-2,5.0377667E-1,-3.2110652E-1,1.6334106E-1,-1.844687E-1,-7.010362E-1,-5.4145124E-2,-6.8656766E-1,-1.6492045E-2,1.4968303E-2,2.6449323E-2,-5.350944E-2,1.0291731E-2,-2.4549324E-2,3.168423E-2,-5.011841E-4,-2.7639871E-2,-2.711499E-3,-4.423693E-2,-1.4677829E-2,-1.1366093E-2,-5.37969E-2],"categories":[],"categories_nodes":[],"categories_segments":[],"categories_sizes":[],"default_left":[0,0,0,0,0,0,0,0,0,0,0,0,0,0,0,0,0,0,0,0,0,0,0,0,0,0,0,0,0],"id":26,"left_children":[1,3,5,7,9,11,13,15,17,19,21,23,25,-1,27,-1,-1,-1,-1,-1,-1,-1,-1,-1,-1,-1,-1,-1,-1],"loss_changes":[1.4183777E2,3.0891815E1,2.1890541E1,1.6670288E1,1.6329683E1,1.6890415E1,1.2252121E0,1.1296215E1,1.545546E1,9.652932E0,1.631362E1,7.8565235E0,7.5557747E0,0E0,3.0803337E0,0E0,0E0,0E0,0E0,0E0,0E0,0E0,0E0,0E0,0E0,0E0,0E0,0E0,0E0],"parents":[2147483647,0,0,1,1,2,2,3,3,4,4,5,5,6,6,7,7,8,8,9,9,10,10,11,11,12,12,14,14],"right_children":[2,4,6,8,10,12,14,16,18,20,22,24,26,-1,28,-1,-1,-1,-1,-1,-1,-1,-1,-1,-1,-1,-1,-1,-1],"split_conditions":[1E0,1E0,2E0,2E0,1E0,2E0,2.45E1,1E0,5.6E1,2E0,7E0,1E0,1.0305E2,-5.4145124E-2,2.525E1,-1.6492045E-2,1.4968303E-2,2.6449323E-2,-5.350944E-2,1.0291731E-2,-2.4549324E-2,3.168423E-2,-5.011841E-4,-2.7639871E-2,-2.711499E-3,-4.423693E-2,-1.4677829E-2,-1.1366093E-2,-5.37969E-2],"split_indices":[16,11,9,18,17,16,2,9,1,1,1,18,2,0,2,0,0,0,0,0,0,0,0,0,0,0,0,0,0],"split_type":[0,0,0,0,0,0,0,0,0,0,0,0,0,0,0,0,0,0,0,0,0,0,0,0,0,0,0,0,0],"sum_hessian":[1.1436973E3,8.023041E2,3.413932E2,4.976106E2,3.0469345E2,2.66811E2,7.45822E1,1.2336856E2,3.7424203E2,1.0570486E2,1.9898859E2,1.634026E2,1.034084E2,5.6988205E1,1.7593992E1,4.297029E1,8.039827E1,3.6899585E2,5.2461867E0,2.5718485E1,7.9986374E1,5.2876877E1,1.4611171E2,4.1837444E1,1.21565155E2,7.046824E1,3.2940155E1,8.799351E0,8.794641E0],"tree_param":{"num_deleted":"0","num_feature":"19","num_nodes":"29","size_leaf_vector":"1"}},{"base_weights":[8.630038E-3,2.2447884E-1,-4.977625E-1,-5.4731034E-2,3.468518E-1,-3.6537352E-1,-9.8179096E-1,-1.4894545E-1,5.0643903E-1,4.9203756E-1,3.5176985E-2,-1.7508864E-1,-6.644042E-1,-5.330023E-2,-6.7797446E-1,6.5721E-3,-2.0103171E-2,3.1878424E-3,3.749022E-2,1.2429701E-2,3.8447384E-2,-6.536846E-3,1.6969187E-2,-2.3026735E-2,-1.3619396E-3,-4.1975304E-2,-1.347091E-2,-1.1598269E-2,-5.310577E-2],"categories":[],"categories_nodes":[],"categories_segments":[],"categories_sizes":[],"default_left":[0,0,0,0,0,0,0,0,0,0,0,0,0,0,0,0,0,0,0,0,0,0,0,0,0,0,0,0,0],"id":27,"left_children":[1,3,5,7,9,11,13,15,17,19,21,23,25,-1,27,-1,-1,-1,-1,-1,-1,-1,-1,-1,-1,-1,-1,-1,-1],"loss_changes":[1.24545166E2,2.7314796E1,2.146289E1,1.2991793E1,2.512284E1,1.5189579E1,1.1333694E0,1.4953648E1,3.7602358E0,2.5354027E1,9.009887E0,6.982385E0,6.9838753E0,0E0,2.9217892E0,0E0,0E0,0E0,0E0,0E0,0E0,0E0,0E0,0E0,0E0,0E0,0E0,0E0,0E0],"parents":[2147483647,0,0,1,1,2,2,3,3,4,4,5,5,6,6,7,7,8,8,9,9,10,10,11,11,12,12,14,14],"right_children":[2,4,6,8,10,12,14,16,18,20,22,24,26,-1,28,-1,-1,-1,-1,-1,-1,-1,-1,-1,-1,-1,-1,-1,-1],"split_conditions":[1E0,1E0,2E0,1E0,2.3E1,2E0,2.45E1,6E0,1E0,1E0,9.565E1,7.38E1,1.0305E2,-5.330023E-2,1.3551E3,6.5721E-3,-2.0103171E-2,3.1878424E-3,3.749022E-2,1.2429701E-2,3.8447384E-2,-6.536846E-3,1.6969187E-2,-2.3026735E-2,-1.3619396E-3,-4.1975304E-2,-1.347091E-2,-1.1598269E-2,-5.310577E-2],"split_indices":[16,17,9,0,1,16,2,1,8,8,2,2,2,0,3,0,0,0,0,0,0,0,0,0,0,0,0,0,0],"split_type":[0,0,0,0,0,0,0,0,0,0,0,0,0,0,0,0,0,0,0,0,0,0,0,0,0,0,0,0,0],"sum_hessian":[1.1374137E3,7.9787695E2,3.3953674E2,2.4330273E2,5.545742E2,2.6799185E2,7.15449E1,2.0895587E2,3.434686E1,3.7794122E2,1.7663301E2,1.6474422E2,1.03247635E2,5.4053352E1,1.7491549E1,9.936575E1,1.09590126E2,1.2631716E1,2.1715145E1,2.0213416E2,1.7580707E2,1.14665085E2,6.1967926E1,5.5492615E1,1.092516E2,7.075549E1,3.2492146E1,8.836145E0,8.655402E0],"tree_param":{"num_deleted":"0","num_feature":"19","num_nodes":"29","size_leaf_vector":"1"}},{"base_weights":[-1.3006599E-2,1.9087267E-1,-4.9474266E-1,3.170324E-1,-1.3486393E-1,-7.895986E-1,-2.5642413E-1,7.3681945E-1,2.270586E-1,1.4482139E-1,-4.243144E-1,-9.4198227E-1,-5.547672E-1,-1.0150932E-2,-6.2175804E-1,2.569451E-2,4.5892633E-2,-3.4108644E-3,2.0948108E-2,1.9307675E-2,-1.1632125E-2,-2.901488E-2,-2.3905288E-3,-3.3298615E-2,-5.2385002E-2,-1.0353785E-2,-4.5979153E-2,1.9697933E-2,-7.3474622E-3,-4.1766454E-2,-1.6188787E-2],"categories":[],"categories_nodes":[],"categories_segments":[],"categories_sizes":[],"default_left":[0,0,0,0,0,0,0,0,0,0,0,0,0,0,0,0,0,0,0,0,0,0,0,0,0,0,0,0,0,0,0],"id":28,"left_children":[1,3,5,7,9,11,13,15,17,19,21,23,25,27,29,-1,-1,-1,-1,-1,-1,-1,-1,-1,-1,-1,-1,-1,-1,-1,-1],"loss_changes":[1.0996879E2,3.2374466E1,2.3193321E1,2.126371E1,1.7899696E1,4.785614E0,1.6692932E1,3.5521278E0,2.6587624E1,1.0366137E1,6.3464985E0,1.8854523E0,7.5228367E0,6.2430525E0,4.4847565E0,0E0,0E0,0E0,0E0,0E0,0E0,0E0,0E0,0E0,0E0,0E0,0E0,0E0,0E0,0E0,0E0],"parents":[2147483647,0,0,1,1,2,2,3,3,4,4,5,5,6,6,7,7,8,8,9,9,10,10,11,11,12,12,13,13,14,14],"right_children":[2,4,6,8,10,12,14,16,18,20,22,24,26,28,30,-1,-1,-1,-1,-1,-1,-1,-1,-1,-1,-1,-1,-1,-1,-1,-1],"split_conditions":[1E0,1E0,7.38E1,2E0,1E0,1E0,2E0,6.36E1,1E0,1.8E1,7.56E1,1E0,4.6E1,4E1,1.0305E2,2.569451E-2,4.5892633E-2,-3.4108644E-3,2.0948108E-2,1.9307675E-2,-1.1632125E-2,-2.901488E-2,-2.3905288E-3,-3.3298615E-2,-5.2385002E-2,-1.0353785E-2,-4.5979153E-2,1.9697933E-2,-7.3474622E-3,-4.1766454E-2,-1.6188787E-2],"split_indices":[16,13,2,1,4,17,16,2,8,1,2,14,1,1,2,0,0,0,0,0,0,0,0,0,0,0,0,0,0,0,0],"split_type":[0,0,0,0,0,0,0,0,0,0,0,0,0,0,0,0,0,0,0,0,0,0,0,0,0,0,0,0,0,0,0],"sum_hessian":[1.1177013E3,7.8575824E2,3.3194305E2,5.664107E2,2.1934753E2,1.4733809E2,1.8460497E2,9.870369E1,4.67707E2,1.11809654E2,1.0753788E2,8.752876E1,5.9809338E1,1.1088481E2,7.3720146E1,4.59537E1,5.274999E1,1.8448709E2,2.832199E2,6.8189545E1,4.362011E1,7.565373E1,3.1884148E1,2.6262278E1,6.1266483E1,3.142604E1,2.8383297E1,2.7567902E1,8.331691E1,4.1891926E1,3.1828222E1],"tree_param":{"num_deleted":"0","num_feature":"19","num_nodes":"31","size_leaf_vector":"1"}},{"base_weights":[1.2931834E-2,2.1393876E-1,-4.7385693E-1,3.3181655E-1,-9.802907E-2,-6.30657E-1,-3.5810478E-2,7.298618E-1,2.4979657E-1,1.0720522E-1,-3.0963492E-1,-3.3143812E-1,-7.726638E-1,3.2983094E-1,-3.476586E-1,2.0639122E-2,4.783603E-2,3.7697616E-3,2.3891302E-2,2.1342797E-2,-6.176963E-3,-2.0336084E-2,1.1439959E-2,-9.4732735E-3,-6.562997E-2,-5.2120697E-2,-3.1996757E-2,-2.1520697E-3,4.1694667E-2,-3.7222426E-2,-4.8794068E-4],"categories":[],"categories_nodes":[],"categories_segments":[],"categories_sizes":[],"default_left":[0,0,0,0,0,0,0,0,0,0,0,0,0,0,0,0,0,0,0,0,0,0,0,0,0,0,0,0,0,0,0],"id":29,"left_children":[1,3,5,7,9,11,13,15,17,19,21,23,25,27,29,-1,-1,-1,-1,-1,-1,-1,-1,-1,-1,-1,-1,-1,-1,-1,-1],"loss_changes":[1.096367E2,2.919357E1,2.2469696E1,1.8614422E1,9.510769E0,9.987968E0,1.0078091E1,6.643429E0,1.9009132E1,8.278702E0,5.7233486E0,1.0803785E1,5.159691E0,7.691874E0,6.3808355E0,0E0,0E0,0E0,0E0,0E0,0E0,0E0,0E0,0E0,0E0,0E0,0E0,0E0,0E0,0E0,0E0],"parents":[2147483647,0,0,1,1,2,2,3,3,4,4,5,5,6,6,7,7,8,8,9,9,10,10,11,11,12,12,13,13,14,14],"right_children":[2,4,6,8,10,12,14,16,18,20,22,24,26,28,30,-1,-1,-1,-1,-1,-1,-1,-1,-1,-1,-1,-1,-1,-1,-1,-1],"split_conditions":[1E0,1E0,9.995E1,2E0,1E0,1E0,6.51975E3,6.36E1,1E0,8E0,9.735E1,5.51165E3,2.45E1,5.4E1,1E0,2.0639122E-2,4.783603E-2,3.7697616E-3,2.3891302E-2,2.1342797E-2,-6.176963E-3,-2.0336084E-2,1.1439959E-2,-9.4732735E-3,-6.562997E-2,-5.2120697E-2,-3.1996757E-2,-2.1520697E-3,4.1694667E-2,-3.7222426E-2,-4.8794068E-4],"split_indices":[16,13,2,1,4,10,3,2,14,1,2,3,2,1,4,0,0,0,0,0,0,0,0,0,0,0,0,0,0,0,0],"split_type":[0,0,0,0,0,0,0,0,0,0,0,0,0,0,0,0,0,0,0,0,0,0,0,0,0,0,0,0,0,0,0],"sum_hessian":[1.1184448E3,7.919782E2,3.2646658E2,5.747456E2,2.172326E2,2.4008699E2,8.637959E1,9.6846794E1,4.7789883E2,1.10527E2,1.067056E2,7.834408E1,1.617429E2,3.9733944E1,4.664565E1,4.1567577E1,5.5279217E1,2.7154593E2,2.063529E2,4.5980385E1,6.4546616E1,9.061173E1,1.6093866E1,6.948308E1,8.861003E0,5.1079018E1,1.10663895E2,2.3364801E1,1.636914E1,2.089999E1,2.574566E1],"tree_param":{"num_deleted":"0","num_feature":"19","num_nodes":"31","size_leaf_vector":"1"}},{"base_weights":[-2.3144835E-3,1.1007781E-1,-8.0161923E-1,2.6452103E-1,-1.9420369E-1,-9.415136E-1,-3.401695E-1,-1.06701076E-1,4.185632E-1,-2.951539E-1,1.6443917E-1,-6.673504E-1,-9.982719E-1,1.4637299E-1,-1.004975E0,-1.181554E-2,1.8848732E-2,9.99402E-3,2.9010737E-2,-3.509308E-4,-2.480079E-2,4.5292556E-2,-6.9859847E-3,2.631523E-2,-4.432404E-2,-1.7399235E-2,-5.1262625E-2,1.9107586E-2,-4.804168E-2,-2.0569362E-2,-5.8378335E-2],"categories":[],"categories_nodes":[],"categories_segments":[],"categories_sizes":[],"default_left":[0,0,0,0,0,0,0,0,0,0,0,0,0,0,0,0,0,0,0,0,0,0,0,0,0,0,0,0,0,0,0],"id":30,"left_children":[1,3,5,7,9,11,13,15,17,19,21,23,25,27,29,-1,-1,-1,-1,-1,-1,-1,-1,-1,-1,-1,-1,-1,-1,-1,-1],"loss_changes":[9.946665E1,4.567008E1,8.49099E0,3.688985E1,1.1902131E1,9.5487213E-1,1.0924374E1,1.1984743E1,1.5988686E1,1.4803669E1,1.6488539E1,5.92918E0,1.1221161E0,5.6174917E0,8.908596E-1,0E0,0E0,0E0,0E0,0E0,0E0,0E0,0E0,0E0,0E0,0E0,0E0,0E0,0E0,0E0,0E0],"parents":[2147483647,0,0,1,1,2,2,3,3,4,4,5,5,6,6,7,7,8,8,9,9,10,10,11,11,12,12,13,13,14,14],"right_children":[2,4,6,8,10,12,14,16,18,20,22,24,26,28,30,-1,-1,-1,-1,-1,-1,-1,-1,-1,-1,-1,-1,-1,-1,-1,-1],"split_conditions":[2E0,1E0,1.0305E2,2E0,9.16E1,1E0,1.098E2,9.68E1,1E0,1E1,2.90755E3,5.445E1,1.94E1,7.73265E3,1E0,-1.181554E-2,1.8848732E-2,9.99402E-3,2.9010737E-2,-3.509308E-4,-2.480079E-2,4.5292556E-2,-6.9859847E-3,2.631523E-2,-4.432404E-2,-1.7399235E-2,-5.1262625E-2,1.9107586E-2,-4.804168E-2,-2.0569362E-2,-5.8378335E-2],"split_indices":[16,10,2,18,2,10,2,2,8,1,3,2,2,3,5,0,0,0,0,0,0,0,0,0,0,0,0,0,0,0,0],"split_type":[0,0,0,0,0,0,0,0,0,0,0,0,0,0,0,0,0,0,0,0,0,0,0,0,0,0,0,0,0,0,0],"sum_hessian":[1.1052242E3,9.697302E2,1.3549397E2,6.4332855E2,3.2640164E2,1.0317486E2,3.231912E1,1.8875652E2,4.5457205E2,2.5484526E2,7.155639E1,1.988429E1,8.3290565E1,1.9111824E1,1.3207294E1,1.4926868E2,3.9487835E1,1.94155E2,2.6041705E2,1.0510611E2,1.4973915E2,2.0240444E1,5.131594E1,2.866733E0,1.701756E1,3.87172E0,7.9418846E1,1.6296375E1,2.8154492E0,3.598848E0,9.608446E0],"tree_param":{"num_deleted":"0","num_feature":"19","num_nodes":"31","size_leaf_vector":"1"}},{"base_weights":[-1.5712209E-2,1.9516377E-1,-3.5253263E-1,4.3167686E-1,-6.379575E-2,-2.738463E-1,-9.04252E-1,2.0972948E-1,7.209079E-1,7.4491024E-2,-3.461453E-1,-3.7880746E-1,9.821716E-2,-1.0755941E0,-5.6597596E-1,1.6421176E-2,-2.1507388E-2,3.9132368E-2,1.1879205E-2,1.7136632E-3,4.3860376E-2,-5.858382E-3,-3.355545E-2,2.3660428E-4,-2.6735857E-2,3.726156E-2,-8.17553E-3,-3.3185553E-2,-5.7324238E-2,2.2907076E-2,-3.7573524E-2],"categories":[],"categories_nodes":[],"categories_segments":[],"categories_sizes":[],"default_left":[0,0,0,0,0,0,0,0,0,0,0,0,0,0,0,0,0,0,0,0,0,0,0,0,0,0,0,0,0,0,0],"id":31,"left_children":[1,3,5,7,9,11,13,15,17,19,21,23,25,27,29,-1,-1,-1,-1,-1,-1,-1,-1,-1,-1,-1,-1,-1,-1,-1,-1],"loss_changes":[7.828177E1,4.1543144E1,1.8173786E1,2.2599228E1,1.2693416E1,1.4595928E1,2.4359283E0,1.5478118E1,4.393509E0,7.027031E0,7.8710546E0,1.740234E1,1.4147182E1,2.2475052E-1,4.1003423E0,0E0,0E0,0E0,0E0,0E0,0E0,0E0,0E0,0E0,0E0,0E0,0E0,0E0,0E0,0E0,0E0],"parents":[2147483647,0,0,1,1,2,2,3,3,4,4,5,5,6,6,7,7,8,8,9,9,10,10,11,11,12,12,13,13,14,14],"right_children":[2,4,6,8,10,12,14,16,18,20,22,24,26,28,30,-1,-1,-1,-1,-1,-1,-1,-1,-1,-1,-1,-1,-1,-1,-1,-1],"split_conditions":[1E0,1.7E1,6.8E1,7.53E1,1E0,8.975E1,9.63E1,1E0,1E0,1.0525E2,5E1,6E0,2.90755E3,1E0,1E0,1.6421176E-2,-2.1507388E-2,3.9132368E-2,1.1879205E-2,1.7136632E-3,4.3860376E-2,-5.858382E-3,-3.355545E-2,2.3660428E-4,-2.6735857E-2,3.726156E-2,-8.17553E-3,-3.3185553E-2,-5.7324238E-2,2.2907076E-2,-3.7573524E-2],"split_indices":[10,1,1,2,13,2,2,11,6,2,1,1,3,5,12,0,0,0,0,0,0,0,0,0,0,0,0,0,0,0,0],"split_type":[0,0,0,0,0,0,0,0,0,0,0,0,0,0,0,0,0,0,0,0,0,0,0,0,0,0,0,0,0,0,0],"sum_hessian":[1.1001671E3,6.768356E2,4.2333154E2,3.5340057E2,3.23435E2,3.7180148E2,5.153006E1,2.009345E2,1.5246606E2,2.175979E2,1.0583709E2,2.8997873E2,8.182274E1,3.275799E1,1.8772068E1,1.6990475E2,3.1029749E1,1.3464705E2,1.781901E1,2.082089E2,9.389001E0,6.288634E1,4.295075E1,8.408887E1,2.0588986E2,2.3033802E1,5.8788937E1,6.3318257E0,2.6426167E1,2.6533034E0,1.6118763E1],"tree_param":{"num_deleted":"0","num_feature":"19","num_nodes":"31","size_leaf_vector":"1"}},{"base_weights":[1.0028605E-2,2.1227585E-1,-2.9649144E-1,5.023165E-1,1.2774391E-2,-1.8506142E-1,-6.238777E-1,1.6631164E-1,6.3693094E-1,-3.504476E-1,1.2991136E-1,-3.6609003E-1,2.2842152E-1,-2.0447633E-1,-8.0232996E-1,1.6990706E-2,-2.299632E-2,2.2007834E-2,4.2000946E-2,-2.7069328E-2,1.3279627E-2,-3.746882E-2,8.520304E-3,1.3116027E-2,-2.3984713E-2,5.27254E-2,7.06824E-3,-4.076598E-2,9.4627915E-3,-4.422287E-2,-1.46691725E-2],"categories":[],"categories_nodes":[],"categories_segments":[],"categories_sizes":[],"default_left":[0,0,0,0,0,0,0,0,0,0,0,0,0,0,0,0,0,0,0,0,0,0,0,0,0,0,0,0,0,0,0],"id":32,"left_children":[1,3,5,7,9,11,13,15,17,19,21,23,25,27,29,-1,-1,-1,-1,-1,-1,-1,-1,-1,-1,-1,-1,-1,-1,-1,-1],"loss_changes":[6.72722E1,3.7822136E1,1.5621986E1,1.1943459E1,1.6568897E1,2.4280989E1,8.003033E0,8.58267E0,7.216896E0,1.1315056E1,1.0609739E1,1.6204134E1,6.974314E0,8.310886E0,2.9259262E0,0E0,0E0,0E0,0E0,0E0,0E0,0E0,0E0,0E0,0E0,0E0,0E0,0E0,0E0,0E0,0E0],"parents":[2147483647,0,0,1,1,2,2,3,3,4,4,5,5,6,6,7,7,8,8,9,9,10,10,11,11,12,12,13,13,14,14],"right_children":[2,4,6,8,10,12,14,16,18,20,22,24,26,28,30,-1,-1,-1,-1,-1,-1,-1,-1,-1,-1,-1,-1,-1,-1,-1,-1],"split_conditions":[1E0,1.1E1,5.5E1,1E0,1E0,7.94E1,1E0,1E0,7.41E1,1E0,7.792E2,2.47E1,8.055E1,1E0,7.6232E3,1.6990706E-2,-2.299632E-2,2.2007834E-2,4.2000946E-2,-2.7069328E-2,1.3279627E-2,-3.746882E-2,8.520304E-3,1.3116027E-2,-2.3984713E-2,5.27254E-2,7.06824E-3,-4.076598E-2,9.4627915E-3,-4.422287E-2,-1.46691725E-2],"split_indices":[13,1,1,17,17,2,5,11,2,0,3,3,2,4,3,0,0,0,0,0,0,0,0,0,0,0,0,0,0,0,0],"split_type":[0,0,0,0,0,0,0,0,0,0,0,0,0,0,0,0,0,0,0,0,0,0,0,0,0,0,0,0,0,0,0],"sum_hessian":[1.0831458E3,6.5275446E2,4.3039127E2,2.6539627E2,3.873582E2,3.2226843E2,1.08122826E2,7.655252E1,1.8884377E2,9.3972755E1,2.9338544E2,2.242175E2,9.805093E1,3.2913887E1,7.520894E1,6.0302715E1,1.6249807E1,9.752144E1,9.132232E1,7.183042E1,2.2142336E1,1.2146005E1,2.8123944E2,3.4127815E1,1.9008969E2,8.288449E0,8.9762474E1,1.2480565E1,2.0433323E1,6.412365E1,1.1085291E1],"tree_param":{"num_deleted":"0","num_feature":"19","num_nodes":"31","size_leaf_vector":"1"}},{"base_weights":[-2.5479462E-2,1.5599617E-1,-4.838648E-1,2.8486836E-1,-4.752355E-2,-7.724211E-1,-2.5093564E-1,5.8249857E-2,4.1373298E-1,-1.4966549E-1,3.8101637E-1,-3.224177E-1,-9.0693754E-1,-5.213725E-2,-5.407133E-1,9.335842E-3,-3.1748295E-2,2.227151E-2,-3.8309816E-2,1.7588682E-2,-1.3237717E-2,4.9383356E-3,3.0511025E-2,5.5315323E-2,-2.4600202E-2,-5.295783E-2,-3.3202134E-2,-1.3566387E-2,9.696203E-3,-4.0995102E-2,-8.712663E-3],"categories":[],"categories_nodes":[],"categories_segments":[],"categories_sizes":[],"default_left":[0,0,0,0,0,0,0,0,0,0,0,0,0,0,0,0,0,0,0,0,0,0,0,0,0,0,0,0,0,0,0],"id":33,"left_children":[1,3,5,7,9,11,13,15,17,19,21,23,25,27,29,-1,-1,-1,-1,-1,-1,-1,-1,-1,-1,-1,-1,-1,-1,-1,-1],"loss_changes":[9.029071E1,2.0410437E1,2.0496246E1,1.3885475E1,1.3292369E1,8.001472E0,9.869501E0,1.5598779E1,1.169149E1,1.42257805E1,3.7229805E0,8.560046E0,3.1763306E0,5.6083975E0,6.9987698E0,0E0,0E0,0E0,0E0,0E0,0E0,0E0,0E0,0E0,0E0,0E0,0E0,0E0,0E0,0E0,0E0],"parents":[2147483647,0,0,1,1,2,2,3,3,4,4,5,5,6,6,7,7,8,8,9,9,10,10,11,11,12,12,13,13,14,14],"right_children":[2,4,6,8,10,12,14,16,18,20,22,24,26,28,30,-1,-1,-1,-1,-1,-1,-1,-1,-1,-1,-1,-1,-1,-1,-1,-1],"split_conditions":[1E0,1E0,2E0,1E0,9.735E1,1E0,2E0,2.3E1,5.6E1,2E0,1E0,3.52E1,5.6E1,2E0,1.0305E2,9.335842E-3,-3.1748295E-2,2.227151E-2,-3.8309816E-2,1.7588682E-2,-1.3237717E-2,4.9383356E-3,3.0511025E-2,5.5315323E-2,-2.4600202E-2,-5.295783E-2,-3.3202134E-2,-1.3566387E-2,9.696203E-3,-4.0995102E-2,-8.712663E-3],"split_indices":[16,11,14,9,2,10,16,1,1,1,5,2,1,18,2,0,0,0,0,0,0,0,0,0,0,0,0,0,0,0,0],"split_type":[0,0,0,0,0,0,0,0,0,0,0,0,0,0,0,0,0,0,0,0,0,0,0,0,0,0,0,0,0,0,0],"sum_hessian":[1.083503E3,7.766755E2,3.068276E2,4.7530466E2,3.0137082E2,1.3601456E2,1.7081305E2,1.7282697E2,3.024777E2,2.4389056E2,5.7480247E1,3.208296E1,1.03931595E2,1.0201016E2,6.880289E1,1.4642255E2,2.6404425E1,2.9517084E2,7.3068714E0,4.5143772E1,1.9874678E2,2.6400585E1,3.107966E1,2.8180451E0,2.9264914E1,6.1825687E1,4.2105907E1,5.3896595E1,4.811357E1,3.834913E1,3.0453758E1],"tree_param":{"num_deleted":"0","num_feature":"19","num_nodes":"31","size_leaf_vector":"1"}},{"base_weights":[-4.66406E-3,1.6019921E-1,-4.2179787E-1,2.6971778E-1,-1.2636772E-1,-3.119237E-1,-8.8469756E-1,6.800789E-1,1.8876308E-1,8.181682E-2,-3.5526899E-1,-1.4316484E-1,-5.996252E-1,-4.890481E-2,-6.5197414E-1,2.377548E-2,4.2791426E-2,-2.3332064E-3,1.7310841E-2,2.305442E-2,-7.2247596E-3,-2.5643382E-2,-4.029207E-3,-2.6234388E-2,-6.365599E-4,-3.9177597E-2,-2.0004194E-2,8.71653E-2,-4.5942694E-2],"categories":[],"categories_nodes":[],"categories_segments":[],"categories_sizes":[],"default_left":[0,0,0,0,0,0,0,0,0,0,0,0,0,0,0,0,0,0,0,0,0,0,0,0,0,0,0,0,0],"id":34,"left_children":[1,3,5,7,9,11,13,15,17,19,21,23,25,-1,27,-1,-1,-1,-1,-1,-1,-1,-1,-1,-1,-1,-1,-1,-1],"loss_changes":[7.405942E1,2.425893E1,1.5239418E1,1.8434303E1,1.0232024E1,1.1959089E1,6.224289E-1,2.8893852E0,1.736752E1,9.760685E0,4.381445E0,7.8398657E0,3.0411835E0,0E0,1.4132693E1,0E0,0E0,0E0,0E0,0E0,0E0,0E0,0E0,0E0,0E0,0E0,0E0,0E0,0E0],"parents":[2147483647,0,0,1,1,2,2,3,3,4,4,5,5,6,6,7,7,8,8,9,9,10,10,11,11,12,12,14,14],"right_children":[2,4,6,8,10,12,14,16,18,20,22,24,26,-1,28,-1,-1,-1,-1,-1,-1,-1,-1,-1,-1,-1,-1,-1,-1],"split_conditions":[1E0,1E0,2E0,2E0,1E0,2E0,5.6E1,6.845E1,1E0,1E0,1E0,1E0,1E0,-4.890481E-2,5.7E1,2.377548E-2,4.2791426E-2,-2.3332064E-3,1.7310841E-2,2.305442E-2,-7.2247596E-3,-2.5643382E-2,-4.029207E-3,-2.6234388E-2,-6.365599E-4,-3.9177597E-2,-2.0004194E-2,8.71653E-2,-4.5942694E-2],"split_indices":[16,13,9,1,4,16,1,3,8,12,8,18,9,0,1,0,0,0,0,0,0,0,0,0,0,0,0,0,0],"split_type":[0,0,0,0,0,0,0,0,0,0,0,0,0,0,0,0,0,0,0,0,0,0,0,0,0,0,0,0,0],"sum_hessian":[1.0749314E3,7.708753E2,3.0405612E2,5.57769E2,2.1310628E2,2.4708235E2,5.697377E1,9.068483E1,4.6708417E2,1.1193999E2,1.011663E2,1.5667696E2,9.040539E1,3.83714E1,1.8602371E1,4.361887E1,4.7065964E1,1.8747394E2,2.7961023E2,4.144529E1,7.04947E1,6.373286E1,3.7433434E1,3.9147255E1,1.1752971E2,4.552034E1,4.4885044E1,1.3102782E0,1.7292093E1],"tree_param":{"num_deleted":"0","num_feature":"19","num_nodes":"29","size_leaf_vector":"1"}},{"base_weights":[-3.0224948E-4,1.6294006E-1,-4.246914E-1,2.848932E-1,-2.9338485E-2,-6.158194E-1,-7.354739E-2,1.3433596E-1,6.228701E-1,-1.7956719E-1,3.3670372E-1,-4.5333177E-1,-8.309516E-1,2.875225E-1,-3.8471058E-1,-2.868202E-4,2.1345068E-2,3.5997998E-2,-7.2174408E-3,-6.3059754E-3,-5.488468E-2,3.898635E-2,7.2568855E-3,-3.180342E-2,-9.30821E-3,-4.5433957E-2,5.3641776E-4,1.8888963E-2,-5.5238366E-2,6.7395093E-3,-2.732536E-2],"categories":[],"categories_nodes":[],"categories_segments":[],"categories_sizes":[],"default_left":[0,0,0,0,0,0,0,0,0,0,0,0,0,0,0,0,0,0,0,0,0,0,0,0,0,0,0,0,0,0,0],"id":35,"left_children":[1,3,5,7,9,11,13,15,17,19,21,23,25,27,29,-1,-1,-1,-1,-1,-1,-1,-1,-1,-1,-1,-1,-1,-1,-1,-1],"loss_changes":[7.457711E1,1.82386E1,2.0024616E1,2.4127918E1,1.6702202E1,6.3876495E0,1.20801325E1,1.3544393E1,1.1006264E1,1.0422863E1,7.3900375E0,5.3712177E0,5.378582E0,6.686181E0,4.919383E0,0E0,0E0,0E0,0E0,0E0,0E0,0E0,0E0,0E0,0E0,0E0,0E0,0E0,0E0,0E0,0E0],"parents":[2147483647,0,0,1,1,2,2,3,3,4,4,5,5,6,6,7,7,8,8,9,9,10,10,11,11,12,12,13,13,14,14],"right_children":[2,4,6,8,10,12,14,16,18,20,22,24,26,28,30,-1,-1,-1,-1,-1,-1,-1,-1,-1,-1,-1,-1,-1,-1,-1,-1],"split_conditions":[1E0,1.7E1,9.48E1,7.895E1,9.565E1,2E0,6E1,1E0,1E0,5.9E1,3E1,2E0,1E0,1.1075E2,1E0,-2.868202E-4,2.1345068E-2,3.5997998E-2,-7.2174408E-3,-6.3059754E-3,-5.488468E-2,3.898635E-2,7.2568855E-3,-3.180342E-2,-9.30821E-3,-4.5433957E-2,5.3641776E-4,1.8888963E-2,-5.5238366E-2,6.7395093E-3,-2.732536E-2],"split_indices":[16,1,2,2,2,16,1,8,10,1,1,11,0,2,11,0,0,0,0,0,0,0,0,0,0,0,0,0,0,0,0],"split_type":[0,0,0,0,0,0,0,0,0,0,0,0,0,0,0,0,0,0,0,0,0,0,0,0,0,0,0,0,0,0,0],"sum_hessian":[1.0744875E3,7.76443E2,2.980446E2,4.7481113E2,3.0163187E2,1.9250838E2,1.055362E2,3.2944986E2,1.4536128E2,2.1422177E2,8.7410095E1,1.11443344E2,8.106503E1,4.8885757E1,5.6650448E1,2.2344894E2,1.060009E2,1.2908717E2,1.6274107E1,2.0351192E2,1.07098465E1,2.5459997E1,6.19501E1,6.535869E1,4.6084656E1,7.413885E1,6.9261827E0,4.6593918E1,2.2918406E0,1.3493161E1,4.3157284E1],"tree_param":{"num_deleted":"0","num_feature":"19","num_nodes":"31","size_leaf_vector":"1"}},{"base_weights":[1.6005863E-2,1.7363259E-1,-3.9523935E-1,2.893594E-1,-4.15597E-3,-5.214072E-1,1.3856672E-2,3.096484E-1,-7.803703E-1,-2.4216057E-1,1.22659594E-1,-3.430833E-1,-7.8272605E-1,2.2495203E-1,-5.163165E-1,6.131877E-3,2.0930745E-2,-7.884143E-2,2.4923684E-2,-1.55334845E-2,2.5779337E-2,2.6114581E-2,-1.3718667E-3,-4.6597928E-2,-1.245408E-2,-2.286384E-2,-4.292807E-2,1.9034799E-3,4.1271463E-2,-3.9387602E-2,1.1302258E-2],"categories":[],"categories_nodes":[],"categories_segments":[],"categories_sizes":[],"default_left":[0,0,0,0,0,0,0,0,0,0,0,0,0,0,0,0,0,0,0,0,0,0,0,0,0,0,0,0,0,0,0],"id":36,"left_children":[1,3,5,7,9,11,13,15,17,19,21,23,25,27,29,-1,-1,-1,-1,-1,-1,-1,-1,-1,-1,-1,-1,-1,-1,-1,-1],"loss_changes":[6.924987E1,1.5889326E1,1.5286224E1,1.0393742E1,9.249044E0,1.0275536E1,8.034218E0,9.31776E0,9.943405E0,5.6896234E0,1.2007246E1,7.3113003E0,1.8532677E0,5.725194E0,4.2990522E0,0E0,0E0,0E0,0E0,0E0,0E0,0E0,0E0,0E0,0E0,0E0,0E0,0E0,0E0,0E0,0E0],"parents":[2147483647,0,0,1,1,2,2,3,3,4,4,5,5,6,6,7,7,8,8,9,9,10,10,11,11,12,12,13,13,14,14],"right_children":[2,4,6,8,10,12,14,16,18,20,22,24,26,28,30,-1,-1,-1,-1,-1,-1,-1,-1,-1,-1,-1,-1,-1,-1,-1,-1],"split_conditions":[1E0,1E0,1.0215E2,5.6E1,1E0,2E0,1.098E2,1E0,1E0,9.865E1,7E0,2.395E1,1E0,1.0815E2,1.1525E2,6.131877E-3,2.0930745E-2,-7.884143E-2,2.4923684E-2,-1.55334845E-2,2.5779337E-2,2.6114581E-2,-1.3718667E-3,-4.6597928E-2,-1.245408E-2,-2.286384E-2,-4.292807E-2,1.9034799E-3,4.1271463E-2,-3.9387602E-2,1.1302258E-2],"split_indices":[16,11,2,1,17,16,2,9,0,2,1,2,10,2,2,0,0,0,0,0,0,0,0,0,0,0,0,0,0,0,0],"split_type":[0,0,0,0,0,0,0,0,0,0,0,0,0,0,0,0,0,0,0,0,0,0,0,0,0,0,0,0,0,0,0],"sum_hessian":[1.0662291E3,7.712091E2,2.9502E2,4.6675784E2,3.044513E2,2.2527057E2,6.9749435E1,4.5876718E2,7.99066E0,1.05514496E2,1.989368E2,1.3527312E2,8.999745E1,5.0298237E1,1.9451199E1,1.6968144E2,2.8908572E2,4.780423E0,3.2102368E0,9.730684E1,8.207655E0,5.3640266E1,1.4529652E2,1.7393974E1,1.17879135E2,1.8336355E1,7.1661095E1,3.917078E1,1.1127456E1,1.4198533E1,5.252666E0],"tree_param":{"num_deleted":"0","num_feature":"19","num_nodes":"31","size_leaf_vector":"1"}},{"base_weights":[1.030758E-3,1.7763388E-1,-2.8081754E-1,3.637205E-1,-1.714841E-2,-1.6216442E-1,-6.543416E-1,1.5371637E-1,6.1847043E-1,-5.280905E-1,1.04732364E-1,-2.6483938E-1,3.6908013E-1,1.5770733E-1,-7.126401E-1,2.1732045E-2,-5.503999E-3,8.712069E-3,3.7972886E-2,-5.109207E-2,-7.3847915E-3,8.088066E-3,-3.7406836E-2,-7.030625E-5,-2.0282878E-2,-7.487994E-2,2.3704626E-2,-2.4716066E-2,9.754815E-2,-4.2918406E-2,-1.1420912E-2],"categories":[],"categories_nodes":[],"categories_segments":[],"categories_sizes":[],"default_left":[0,0,0,0,0,0,0,0,0,0,0,0,0,0,0,0,0,0,0,0,0,0,0,0,0,0,0,0,0,0,0],"id":37,"left_children":[1,3,5,7,9,11,13,15,17,19,21,23,25,27,29,-1,-1,-1,-1,-1,-1,-1,-1,-1,-1,-1,-1,-1,-1,-1,-1],"loss_changes":[5.2276665E1,2.3409607E1,1.7824633E1,1.7572987E1,1.9760149E1,1.6918026E1,4.7141914E0,1.3561635E1,9.193226E0,1.1326366E1,1.2587665E1,9.607613E0,1.0582617E1,9.5349045E0,6.2165146E0,0E0,0E0,0E0,0E0,0E0,0E0,0E0,0E0,0E0,0E0,0E0,0E0,0E0,0E0,0E0,0E0],"parents":[2147483647,0,0,1,1,2,2,3,3,4,4,5,5,6,6,7,7,8,8,9,9,10,10,11,11,12,12,13,13,14,14],"right_children":[2,4,6,8,10,12,14,16,18,20,22,24,26,28,30,-1,-1,-1,-1,-1,-1,-1,-1,-1,-1,-1,-1,-1,-1,-1,-1],"split_conditions":[1E0,1.1838E3,5.5E1,1E0,1E0,9.59E1,1.3551E3,1.986E2,1E0,1E0,6.9E1,1E0,1E0,2.06E1,1.0815E2,2.1732045E-2,-5.503999E-3,8.712069E-3,3.7972886E-2,-5.109207E-2,-7.3847915E-3,8.088066E-3,-3.7406836E-2,-7.030625E-5,-2.0282878E-2,-7.487994E-2,2.3704626E-2,-2.4716066E-2,9.754815E-2,-4.2918406E-2,-1.1420912E-2],"split_indices":[13,3,1,8,9,2,3,3,17,11,1,15,15,2,2,0,0,0,0,0,0,0,0,0,0,0,0,0,0,0,0],"split_type":[0,0,0,0,0,0,0,0,0,0,0,0,0,0,0,0,0,0,0,0,0,0,0,0,0,0,0,0,0,0,0],"sum_hessian":[1.0482511E3,6.446747E2,4.0357648E2,3.2925308E2,3.1542157E2,3.0737146E2,9.620503E1,1.8135541E2,1.4789767E2,6.010784E1,2.5531372E2,2.5800723E2,4.9364227E1,6.3298883E0,8.9875145E1,8.75128E1,9.384261E1,3.61694E1,1.1172828E2,2.5422832E1,3.468501E1,2.4007117E2,1.5242551E1,9.0226845E1,1.6778038E2,1.9228511E0,4.7441376E1,5.17324E0,1.1566485E0,6.849015E1,2.1384987E1],"tree_param":{"num_deleted":"0","num_feature":"19","num_nodes":"31","size_leaf_vector":"1"}},{"base_weights":[-2.4721047E-3,7.666583E-2,-6.4195734E-1,2.1546839E-1,-1.2579675E-1,-7.7114236E-1,-8.6819395E-2,-8.372369E-2,3.7293813E-1,-5.360742E-1,5.7435534E-3,-4.5925283E-1,-8.637097E-1,4.9407336E-1,-5.44102E-2,-7.714764E-3,2.514398E-2,9.232054E-3,2.9945312E-2,-1.4938274E-2,-3.988248E-2,3.2957986E-2,-3.4338187E-3,1.6537642E-2,-3.070207E-2,-1.0053792E-2,-4.4624373E-2,5.6530412E-2,-1.73173E-2],"categories":[],"categories_nodes":[],"categories_segments":[],"categories_sizes":[],"default_left":[0,0,0,0,0,0,0,0,0,0,0,0,0,0,0,0,0,0,0,0,0,0,0,0,0,0,0,0,0],"id":38,"left_children":[1,3,5,7,9,11,13,15,17,19,21,23,25,27,-1,-1,-1,-1,-1,-1,-1,-1,-1,-1,-1,-1,-1,-1,-1],"loss_changes":[5.3004887E1,2.6220104E1,8.204765E0,2.6100706E1,2.0496181E1,2.3010292E0,1.3858891E1,8.010217E0,1.5322433E1,5.484871E0,1.4075556E1,3.0793257E0,1.1729088E0,8.5127535E0,0E0,0E0,0E0,0E0,0E0,0E0,0E0,0E0,0E0,0E0,0E0,0E0,0E0,0E0,0E0],"parents":[2147483647,0,0,1,1,2,2,3,3,4,4,5,5,6,6,7,7,8,8,9,9,10,10,11,11,12,12,13,13],"right_children":[2,4,6,8,10,12,14,16,18,20,22,24,26,28,-1,-1,-1,-1,-1,-1,-1,-1,-1,-1,-1,-1,-1,-1,-1],"split_conditions":[2E0,2.3E1,1.0585E2,1E0,2.2491E3,1E0,7.2E1,8.64E1,1E0,1E0,2.50995E3,5.445E1,1.94E1,1.098E2,-5.44102E-2,-7.714764E-3,2.514398E-2,9.232054E-3,2.9945312E-2,-1.4938274E-2,-3.988248E-2,3.2957986E-2,-3.4338187E-3,1.6537642E-2,-3.070207E-2,-1.0053792E-2,-4.4624373E-2,5.6530412E-2,-1.73173E-2],"split_indices":[16,1,2,17,3,11,1,2,8,13,3,2,2,2,0,0,0,0,0,0,0,0,0,0,0,0,0,0,0],"split_type":[0,0,0,0,0,0,0,0,0,0,0,0,0,0,0,0,0,0,0,0,0,0,0,0,0,0,0,0,0],"sum_hessian":[1.0453987E3,9.3105804E2,1.14340706E2,5.5233124E2,3.7872678E2,9.244006E1,2.1900642E1,1.9062073E2,3.6171054E2,9.1199104E1,2.8752765E2,2.2520943E1,6.991912E1,1.4181002E1,7.719641E0,1.708085E2,1.9812233E1,1.9829243E2,1.634181E2,4.894078E1,4.2258324E1,2.859579E1,2.589319E2,3.5034292E0,1.9017513E1,3.2425997E0,6.667652E1,7.8728237E0,6.3081784E0],"tree_param":{"num_deleted":"0","num_feature":"19","num_nodes":"29","size_leaf_vector":"1"}},{"base_weights":[1.2598847E-2,1.721343E-1,-2.5082183E-1,-7.828187E-2,2.9001355E-1,-5.179536E-2,-5.168921E-1,9.858674E-3,-6.0419255E-1,6.362961E-1,2.1494591E-1,-1.4657984E-3,-8.746487E-1,-1.0187699E0,-3.6229107E-1,-4.389452E-3,4.447206E-2,-6.658798E-2,-1.8864835E-2,3.5400093E-2,-1.3119685E-2,4.4086095E-4,1.9741567E-2,-3.7586715E-3,2.1419242E-2,-5.7125557E-2,4.3708426E-3,-2.3139033E-2,-5.4263797E-2,-1.0102125E-2,-5.1379737E-2],"categories":[],"categories_nodes":[],"categories_segments":[],"categories_sizes":[],"default_left":[0,0,0,0,0,0,0,0,0,0,0,0,0,0,0,0,0,0,0,0,0,0,0,0,0,0,0,0,0,0,0],"id":39,"left_children":[1,3,5,7,9,11,13,15,17,19,21,23,25,27,29,-1,-1,-1,-1,-1,-1,-1,-1,-1,-1,-1,-1,-1,-1,-1,-1],"loss_changes":[4.3607758E1,1.9098358E1,2.0700748E1,9.63003E0,1.1290417E1,9.31814E0,1.2618515E1,1.543534E1,4.419917E0,5.199852E0,1.3448593E1,6.7827225E0,3.44199E0,9.349518E-1,1.3600847E1,0E0,0E0,0E0,0E0,0E0,0E0,0E0,0E0,0E0,0E0,0E0,0E0,0E0,0E0,0E0,0E0],"parents":[2147483647,0,0,1,1,2,2,3,3,4,4,5,5,6,6,7,7,8,8,9,9,10,10,11,11,12,12,13,13,14,14],"right_children":[2,4,6,8,10,12,14,16,18,20,22,24,26,28,30,-1,-1,-1,-1,-1,-1,-1,-1,-1,-1,-1,-1,-1,-1,-1,-1],"split_conditions":[1E0,2E0,1E0,6E1,2E0,5.4E1,2.45E1,4.99025E3,6.4E1,1E0,1E0,1E0,1E0,1.94E1,7.1E1,-4.389452E-3,4.447206E-2,-6.658798E-2,-1.8864835E-2,3.5400093E-2,-1.3119685E-2,4.4086095E-4,1.9741567E-2,-3.7586715E-3,2.1419242E-2,-5.7125557E-2,4.3708426E-3,-2.3139033E-2,-5.4263797E-2,-1.0102125E-2,-5.1379737E-2],"split_indices":[10,18,16,1,1,1,2,3,1,13,14,0,6,2,1,0,0,0,0,0,0,0,0,0,0,0,0,0,0,0,0],"split_type":[0,0,0,0,0,0,0,0,0,0,0,0,0,0,0,0,0,0,0,0,0,0,0,0,0,0,0,0,0,0,0],"sum_hessian":[1.0356365E3,6.4521906E2,3.9041745E2,2.0662093E2,4.3859818E2,2.2403154E2,1.6638591E2,1.7780309E2,2.8817839E1,7.680855E1,3.617896E2,2.1206258E2,1.1968958E1,3.7867577E1,1.2851834E2,1.6084671E2,1.6956364E1,5.6930304E0,2.312481E1,7.1329414E1,5.479133E0,1.6908546E2,1.9270415E2,1.8172656E2,3.0336018E1,9.215562E0,2.7533963E0,4.895955E0,3.297162E1,1.0462217E2,2.389617E1],"tree_param":{"num_deleted":"0","num_feature":"19","num_nodes":"31","size_leaf_vector":"1"}},{"base_weights":[6.143752E-3,1.4002047E-1,-3.5282293E-1,5.9259325E-2,4.1623408E-1,-2.5336736E-1,-8.1501395E-1,2.4631105E-1,-8.903163E-2,6.736276E-1,1.7265102E-1,-1.1194564E-1,-5.253422E-1,-9.3612313E-1,-4.0885672E-1,2.3450882E-3,2.6428252E-2,4.4907877E-4,-2.979791E-2,1.8463619E-2,4.5086842E-2,-2.5606468E-2,1.231691E-2,-6.7890817E-3,7.827144E-2,-5.5453595E-2,-2.0997226E-2,-1.9556442E-2,-4.9771465E-2,1.1019877E-2,-4.8131198E-2],"categories":[],"categories_nodes":[],"categories_segments":[],"categories_sizes":[],"default_left":[0,0,0,0,0,0,0,0,0,0,0,0,0,0,0,0,0,0,0,0,0,0,0,0,0,0,0,0,0,0,0],"id":40,"left_children":[1,3,5,7,9,11,13,15,17,19,21,23,25,27,29,-1,-1,-1,-1,-1,-1,-1,-1,-1,-1,-1,-1,-1,-1,-1,-1],"loss_changes":[5.018332E1,1.694113E1,1.2832809E1,1.6377672E1,1.0661171E1,8.975571E0,2.0658875E0,1.4666068E1,1.6383514E1,5.445736E0,4.650526E0,6.4418E0,4.461216E0,8.249855E-1,4.8151283E0,0E0,0E0,0E0,0E0,0E0,0E0,0E0,0E0,0E0,0E0,0E0,0E0,0E0,0E0,0E0,0E0],"parents":[2147483647,0,0,1,1,2,2,3,3,4,4,5,5,6,6,7,7,8,8,9,9,10,10,11,11,12,12,13,13,14,14],"right_children":[2,4,6,8,10,12,14,16,18,20,22,24,26,28,30,-1,-1,-1,-1,-1,-1,-1,-1,-1,-1,-1,-1,-1,-1,-1,-1],"split_conditions":[1E0,1E0,2E0,8E0,1.25935E3,2E0,2.45E1,6.57E1,3E0,1E0,1.44465E3,8.05855E3,4.9E1,1.94E1,2.525E1,2.3450882E-3,2.6428252E-2,4.4907877E-4,-2.979791E-2,1.8463619E-2,4.5086842E-2,-2.5606468E-2,1.231691E-2,-6.7890817E-3,7.827144E-2,-5.5453595E-2,-2.0997226E-2,-1.9556442E-2,-4.9771465E-2,1.1019877E-2,-4.8131198E-2],"split_indices":[16,0,9,1,3,16,2,2,18,8,3,3,1,2,2,0,0,0,0,0,0,0,0,0,0,0,0,0,0,0,0],"split_type":[0,0,0,0,0,0,0,0,0,0,0,0,0,0,0,0,0,0,0,0,0,0,0,0,0,0,0,0,0,0,0],"sum_hessian":[1.0422117E3,7.5954803E2,2.826637E2,5.8864935E2,1.7089864E2,2.3388405E2,4.877965E1,2.600127E2,3.2863666E2,8.223531E1,8.866333E1,1.5480171E2,7.908233E1,3.657021E1,1.2209445E1,1.5305045E2,1.0696225E2,2.7621362E2,5.242305E1,3.6351753E1,4.5883556E1,8.035818E0,8.062751E1,1.5353894E2,1.2627825E0,1.06387E1,6.844363E1,4.3343887E0,3.223582E1,5.9969835E0,6.212462E0],"tree_param":{"num_deleted":"0","num_feature":"19","num_nodes":"31","size_leaf_vector":"1"}},{"base_weights":[-2.4622988E-2,1.12643585E-1,-3.960572E-1,2.3742801E-1,-8.411179E-2,-6.3769317E-1,-1.7341878E-1,1.1584766E-1,5.1841587E-1,-2.5988785E-3,-8.50372E-1,-3.5293296E-1,-7.571546E-1,-4.6228457E-2,-7.078181E-1,2.0017615E-2,-1.5314546E-3,5.1651183E-3,3.055499E-2,-1.877308E-2,6.425833E-3,-5.6881305E-2,-3.1759252E-3,2.2242384E-2,-3.2628387E-2,-4.4131845E-2,-1.8329306E-2,-4.1862525E-2,6.563916E-4,-5.6409486E-2,-1.6941123E-2],"categories":[],"categories_nodes":[],"categories_segments":[],"categories_sizes":[],"default_left":[0,0,0,0,0,0,0,0,0,0,0,0,0,0,0,0,0,0,0,0,0,0,0,0,0,0,0,0,0,0,0],"id":41,"left_children":[1,3,5,7,9,11,13,15,17,19,21,23,25,27,29,-1,-1,-1,-1,-1,-1,-1,-1,-1,-1,-1,-1,-1,-1,-1,-1],"loss_changes":[5.208181E1,1.8335821E1,1.4717331E1,1.5543795E1,1.8126827E1,4.216324E0,9.811104E0,1.3351706E1,5.233124E0,1.2922718E1,6.2348614E0,1.0049101E1,4.184101E0,5.5538054E0,3.9257135E0,0E0,0E0,0E0,0E0,0E0,0E0,0E0,0E0,0E0,0E0,0E0,0E0,0E0,0E0,0E0,0E0],"parents":[2147483647,0,0,1,1,2,2,3,3,4,4,5,5,6,6,7,7,8,8,9,9,10,10,11,11,12,12,13,13,14,14],"right_children":[2,4,6,8,10,12,14,16,18,20,22,24,26,28,30,-1,-1,-1,-1,-1,-1,-1,-1,-1,-1,-1,-1,-1,-1,-1,-1],"split_conditions":[1E0,1.8E1,7.94E1,7.895E1,3E0,1E0,7.1E1,2E0,1E0,1E0,2E0,1.20815E3,2E0,3E1,1E0,2.0017615E-2,-1.5314546E-3,5.1651183E-3,3.055499E-2,-1.877308E-2,6.425833E-3,-5.6881305E-2,-3.1759252E-3,2.2242384E-2,-3.2628387E-2,-4.4131845E-2,-1.8329306E-2,-4.1862525E-2,6.563916E-4,-5.6409486E-2,-1.6941123E-2],"split_indices":[16,1,2,2,18,10,1,1,17,8,15,3,12,1,4,0,0,0,0,0,0,0,0,0,0,0,0,0,0,0,0],"split_type":[0,0,0,0,0,0,0,0,0,0,0,0,0,0,0,0,0,0,0,0,0,0,0,0,0,0,0,0,0,0,0],"sum_hessian":[1.01962726E3,7.4500226E2,2.74625E2,4.5575238E2,2.892499E2,1.3079985E2,1.4382513E2,3.1909555E2,1.3665683E2,2.623456E2,2.6904299E1,3.9824516E1,9.0975334E1,1.17052444E2,2.6772694E1,1.07861275E2,2.1123425E2,2.5328745E1,1.1132809E2,6.776728E1,1.9457832E2,1.9382572E1,7.5217257E0,1.0741236E1,2.9083282E1,6.7900345E1,2.3074987E1,7.255482E0,1.0979696E2,1.1553322E1,1.5219373E1],"tree_param":{"num_deleted":"0","num_feature":"19","num_nodes":"31","size_leaf_vector":"1"}},{"base_weights":[4.7597423E-4,6.923543E-2,-6.019476E-1,1.6648546E-1,-1.2299659E-1,-6.9803494E-1,-3.1140915E-1,-5.4695528E-2,2.635129E-1,-7.027299E-2,-6.166332E-1,-7.6311415E-1,-9.350443E-2,-2.2819504E-2,-5.164972E-2,-7.975451E-3,1.785253E-2,2.8749488E-3,2.0908974E-2,-1.0172972E-2,8.886449E-3,-3.7932273E-2,4.993965E-2,5.4871906E-3,-3.963319E-2,3.7747942E-2,-4.7363304E-2,-3.3415627E-2,2.3513094E-2],"categories":[],"categories_nodes":[],"categories_segments":[],"categories_sizes":[],"default_left":[0,0,0,0,0,0,0,0,0,0,0,0,0,0,0,0,0,0,0,0,0,0,0,0,0,0,0,0,0],"id":42,"left_children":[1,3,5,7,9,11,13,15,17,19,21,23,25,27,-1,-1,-1,-1,-1,-1,-1,-1,-1,-1,-1,-1,-1,-1,-1],"loss_changes":[4.2611008E1,1.7281279E1,2.7246666E0,1.3181595E1,8.04447E0,3.012638E0,5.8064957E0,8.166529E0,1.3570187E1,9.347322E0,7.607724E0,1.9087257E0,7.059457E0,7.0048704E0,0E0,0E0,0E0,0E0,0E0,0E0,0E0,0E0,0E0,0E0,0E0,0E0,0E0,0E0,0E0],"parents":[2147483647,0,0,1,1,2,2,3,3,4,4,5,5,6,6,7,7,8,8,9,9,10,10,11,11,12,12,13,13],"right_children":[2,4,6,8,10,12,14,16,18,20,22,24,26,28,-1,-1,-1,-1,-1,-1,-1,-1,-1,-1,-1,-1,-1,-1,-1],"split_conditions":[2E0,1E0,1.0305E2,2E0,5.9E1,1E0,7.8524E3,9.68E1,1E0,7.295E1,1.1625E2,1.94E1,1E0,1E0,-5.164972E-2,-7.975451E-3,1.785253E-2,2.8749488E-3,2.0908974E-2,-1.0172972E-2,8.886449E-3,-3.7932273E-2,4.993965E-2,5.4871906E-3,-3.963319E-2,3.7747942E-2,-4.7363304E-2,-3.3415627E-2,2.3513094E-2],"split_indices":[16,10,2,18,1,0,3,2,8,2,2,2,9,10,0,0,0,0,0,0,0,0,0,0,0,0,0,0,0],"split_type":[0,0,0,0,0,0,0,0,0,0,0,0,0,0,0,0,0,0,0,0,0,0,0,0,0,0,0,0,0],"sum_hessian":[1.0266908E3,9.2230566E2,1.0438509E2,6.1255066E2,3.09755E2,7.73885E1,2.69966E1,1.8691069E2,4.2563995E2,2.8089584E2,2.8859148E1,6.9630295E1,7.7581973E0,2.002104E1,6.975559E0,1.4947354E2,3.7437157E1,1.8311064E2,2.4252933E2,1.8286827E2,9.802759E1,2.7014662E1,1.844486E0,2.1911976E0,6.74391E1,3.9492161E0,3.8089812E0,8.516589E0,1.150445E1],"tree_param":{"num_deleted":"0","num_feature":"19","num_nodes":"29","size_leaf_vector":"1"}},{"base_weights":[8.971789E-3,1.7489946E-1,-1.8708932E-1,-7.572513E-2,3.136822E-1,-5.3004056E-1,-7.725074E-2,-1.4677915E-1,5.583766E-1,4.0265292E-1,1.86472E-2,-2.3794928E-1,-7.6952946E-1,6.459365E-1,-1.454472E-1,-2.7675922E-3,-3.5658132E-2,3.7787613E-2,-1.4505602E-2,6.568765E-3,2.4031933E-2,3.0857652E-2,-8.007283E-3,3.2807346E-2,-1.9672817E-2,-2.9194525E-2,-5.8334954E-2,-4.7765635E-2,4.0057234E-2,-4.419519E-3,-4.8545662E-2],"categories":[],"categories_nodes":[],"categories_segments":[],"categories_sizes":[],"default_left":[0,0,0,0,0,0,0,0,0,0,0,0,0,0,0,0,0,0,0,0,0,0,0,0,0,0,0,0,0,0,0],"id":43,"left_children":[1,3,5,7,9,11,13,15,17,19,21,23,25,27,29,-1,-1,-1,-1,-1,-1,-1,-1,-1,-1,-1,-1,-1,-1,-1,-1],"loss_changes":[3.3237553E1,1.9270279E1,1.7601152E1,9.0035515E0,9.345913E0,7.7523613E0,1.7646574E1,9.222046E0,3.5955849E0,5.7276382E0,9.04545E0,7.5653477E0,3.8815918E0,8.433175E0,1.5270546E1,0E0,0E0,0E0,0E0,0E0,0E0,0E0,0E0,0E0,0E0,0E0,0E0,0E0,0E0,0E0,0E0],"parents":[2147483647,0,0,1,1,2,2,3,3,4,4,5,5,6,6,7,7,8,8,9,9,10,10,11,11,12,12,13,13,14,14],"right_children":[2,4,6,8,10,12,14,16,18,20,22,24,26,28,30,-1,-1,-1,-1,-1,-1,-1,-1,-1,-1,-1,-1,-1,-1,-1,-1],"split_conditions":[2.3E1,1E0,2.2491E3,8.64E1,1E0,1E0,2.50995E3,7.0205E2,1E0,2E0,6.01E1,1.22155E3,3.575E1,5.365E1,3E0,-2.7675922E-3,-3.5658132E-2,3.7787613E-2,-1.4505602E-2,6.568765E-3,2.4031933E-2,3.0857652E-2,-8.007283E-3,3.2807346E-2,-1.9672817E-2,-2.9194525E-2,-5.8334954E-2,-4.7765635E-2,4.0057234E-2,-4.419519E-3,-4.8545662E-2],"split_indices":[1,17,3,2,13,13,3,3,10,18,3,3,2,2,18,0,0,0,0,0,0,0,0,0,0,0,0,0,0,0,0],"split_type":[0,0,0,0,0,0,0,0,0,0,0,0,0,0,0,0,0,0,0,0,0,0,0,0,0,0,0,0,0,0,0],"sum_hessian":[1.01968317E3,5.523414E2,4.673418E2,1.9701352E2,3.5532785E2,1.1244061E2,3.5490118E2,1.7785281E2,1.9160704E1,2.7272128E2,8.2606544E1,5.1555195E1,6.0885414E1,2.9853111E1,3.2504807E2,1.540787E2,2.3774113E1,1.5633364E1,3.5273392E0,6.149439E1,2.1122691E2,1.8437057E1,6.416949E1,7.161331E0,4.4393864E1,4.3175232E1,1.7710184E1,2.1824284E0,2.7670683E1,3.0506857E2,1.9979486E1],"tree_param":{"num_deleted":"0","num_feature":"19","num_nodes":"31","size_leaf_vector":"1"}},{"base_weights":[-5.633664E-3,5.9920304E-2,-5.854596E-1,2.9976487E-1,-3.8297553E-2,-7.9942197E-1,-2.0506077E-1,1.7956658E-1,6.355776E-1,-2.7759555E-1,1.0791605E-1,-8.5834265E-1,-1.573474E-1,1.0175928E0,-3.4214863E-1,3.0908262E-2,4.2993813E-3,3.8024455E-2,-2.5788529E-2,3.5796396E-3,-2.044596E-2,-5.3142956E-3,1.2224102E-2,-3.0534923E-2,-5.4125663E-2,4.958785E-2,-4.4872638E-2,1.250147E-2,7.218569E-2,-5.3956993E-2,-6.270703E-3],"categories":[],"categories_nodes":[],"categories_segments":[],"categories_sizes":[],"default_left":[0,0,0,0,0,0,0,0,0,0,0,0,0,0,0,0,0,0,0,0,0,0,0,0,0,0,0,0,0,0,0],"id":44,"left_children":[1,3,5,7,9,11,13,15,17,19,21,23,25,27,29,-1,-1,-1,-1,-1,-1,-1,-1,-1,-1,-1,-1,-1,-1,-1,-1],"loss_changes":[3.842367E1,2.140795E1,8.193226E0,1.0541941E1,2.2607609E1,2.3380203E0,6.7690372E0,7.9834294E0,1.0343294E1,1.1265007E1,1.1764134E1,2.6504593E0,6.604355E0,9.845567E-1,5.4863057E0,0E0,0E0,0E0,0E0,0E0,0E0,0E0,0E0,0E0,0E0,0E0,0E0,0E0,0E0,0E0,0E0],"parents":[2147483647,0,0,1,1,2,2,3,3,4,4,5,5,6,6,7,7,8,8,9,9,10,10,11,11,12,12,13,13,14,14],"right_children":[2,4,6,8,10,12,14,16,18,20,22,24,26,28,30,-1,-1,-1,-1,-1,-1,-1,-1,-1,-1,-1,-1,-1,-1,-1,-1],"split_conditions":[2E0,6E0,9.385E1,7.49E1,7.38E1,1E0,9.63E1,1E0,1E0,1E0,2E0,5.445E1,1E0,9.515E1,1.0305E2,3.0908262E-2,4.2993813E-3,3.8024455E-2,-2.5788529E-2,3.5796396E-3,-2.044596E-2,-5.3142956E-3,1.2224102E-2,-3.0534923E-2,-5.4125663E-2,4.958785E-2,-4.4872638E-2,1.250147E-2,7.218569E-2,-5.3956993E-2,-6.270703E-3],"split_indices":[16,1,2,2,2,0,2,7,10,7,18,2,15,2,2,0,0,0,0,0,0,0,0,0,0,0,0,0,0,0,0],"split_type":[0,0,0,0,0,0,0,0,0,0,0,0,0,0,0,0,0,0,0,0,0,0,0,0,0,0,0,0,0,0,0],"sum_hessian":[1.00896326E3,9.072842E2,1.0167909E2,2.6299863E2,6.442855E2,6.437093E1,3.7308163E1,1.9480597E2,6.819267E1,2.4401842E2,4.0026712E2,5.8651848E1,5.7190824E0,3.1138215E0,3.4194344E1,3.3269257E1,1.6153671E2,6.1824696E1,6.367974E0,6.68144E1,1.7720401E2,1.5592404E2,2.4434308E2,2.9636385E1,2.9015463E1,2.1072683E0,3.6118138E0,1.6780101E0,1.4358113E0,6.86643E0,2.7327911E1],"tree_param":{"num_deleted":"0","num_feature":"19","num_nodes":"31","size_leaf_vector":"1"}},{"base_weights":[-2.3645402E-3,1.2768973E-1,-2.2261444E-1,3.8719988E-1,2.5402345E-2,-1.3323686E-1,-5.7964283E-1,2.2989169E-1,7.3706096E-1,-2.9735148E-1,1.2243961E-1,-1.4908674E-1,1.295219E0,-7.4795973E-1,-2.1409448E-3,1.53555395E-2,-2.1720191E-2,4.6093047E-2,2.3897914E-2,5.3034633E-2,-2.0188676E-2,-4.7251107E-3,1.2497026E-2,1.4131627E-2,-1.0278325E-2,8.475306E-2,1.3997781E-2,1.2606909E-3,-3.9149992E-2,3.340978E-2,-5.112589E-2],"categories":[],"categories_nodes":[],"categories_segments":[],"categories_sizes":[],"default_left":[0,0,0,0,0,0,0,0,0,0,0,0,0,0,0,0,0,0,0,0,0,0,0,0,0,0,0,0,0,0,0],"id":45,"left_children":[1,3,5,7,9,11,13,15,17,19,21,23,25,27,29,-1,-1,-1,-1,-1,-1,-1,-1,-1,-1,-1,-1,-1,-1,-1,-1],"loss_changes":[2.848212E1,1.658553E1,1.1702576E1,9.554474E0,1.4114515E1,6.907052E0,7.153717E0,6.4600177E0,2.161703E0,1.5487503E1,9.602579E0,7.231301E0,8.8841295E-1,1.5638866E0,1.2732274E1,0E0,0E0,0E0,0E0,0E0,0E0,0E0,0E0,0E0,0E0,0E0,0E0,0E0,0E0,0E0,0E0],"parents":[2147483647,0,0,1,1,2,2,3,3,4,4,5,5,6,6,7,7,8,8,9,9,10,10,11,11,12,12,13,13,14,14],"right_children":[2,4,6,8,10,12,14,16,18,20,22,24,26,28,30,-1,-1,-1,-1,-1,-1,-1,-1,-1,-1,-1,-1,-1,-1,-1,-1],"split_conditions":[1E0,6E0,2E0,7.585E1,1E0,1.1625E2,1.035E2,1E0,2.294E2,3.36E1,2E0,2.47E1,1E0,1.94E1,7.73265E3,1.53555395E-2,-2.1720191E-2,4.6093047E-2,2.3897914E-2,5.3034633E-2,-2.0188676E-2,-4.7251107E-3,1.2497026E-2,1.4131627E-2,-1.0278325E-2,8.475306E-2,1.3997781E-2,1.2606909E-3,-3.9149992E-2,3.340978E-2,-5.112589E-2],"split_indices":[10,1,16,2,17,2,2,13,3,2,18,3,18,2,3,0,0,0,0,0,0,0,0,0,0,0,0,0,0,0,0],"split_type":[0,0,0,0,0,0,0,0,0,0,0,0,0,0,0,0,0,0,0,0,0,0,0,0,0,0,0,0,0,0,0],"sum_hessian":[9.9234094E2,6.241877E2,3.6815326E2,1.7568285E2,4.4850485E2,2.9554138E2,7.261189E1,1.2233459E2,5.334826E1,1.0319744E2,3.453074E2,2.9318387E2,2.357484E0,5.5996243E1,1.6615652E1,1.1007673E2,1.2257857E1,2.9645956E1,2.3702301E1,6.847691E0,9.6349754E1,1.2791679E2,2.1739061E2,3.34552E1,2.5972867E2,1.2109833E0,1.1465008E0,2.4398742E0,5.355637E1,1.0236156E1,6.379494E0],"tree_param":{"num_deleted":"0","num_feature":"19","num_nodes":"31","size_leaf_vector":"1"}},{"base_weights":[1.3106086E-2,6.7554034E-2,-4.8241398E-1,2.9176784E-1,-2.3607938E-2,-6.5407443E-1,-1.7861733E-1,2.3887424E-2,4.650989E-1,-2.8342465E-1,1.3083608E-1,-7.4888766E-1,2.7582568E-1,1.0504419E0,-3.1672537E-1,6.7824586E-3,-3.311238E-2,1.5836095E-2,3.7191983E-2,2.9165265E-3,-2.0591855E-2,-1.5109224E-3,1.1769365E-2,-2.5693655E-2,-4.874323E-2,-4.069237E-2,5.583575E-2,1.604044E-2,6.88598E-2,-5.1691245E-2,-6.993474E-3],"categories":[],"categories_nodes":[],"categories_segments":[],"categories_sizes":[],"default_left":[0,0,0,0,0,0,0,0,0,0,0,0,0,0,0,0,0,0,0,0,0,0,0,0,0,0,0,0,0,0,0],"id":46,"left_children":[1,3,5,7,9,11,13,15,17,19,21,23,25,27,29,-1,-1,-1,-1,-1,-1,-1,-1,-1,-1,-1,-1,-1,-1,-1,-1],"loss_changes":[2.7316992E1,1.8648758E1,5.110756E0,1.2233339E1,2.6092907E1,5.8205395E0,6.7094717E0,8.114946E0,6.3840866E0,1.066184E1,6.8760734E0,2.5820656E0,6.9769106E0,5.1817274E-1,4.2359514E0,0E0,0E0,0E0,0E0,0E0,0E0,0E0,0E0,0E0,0E0,0E0,0E0,0E0,0E0,0E0,0E0],"parents":[2147483647,0,0,1,1,2,2,3,3,4,4,5,5,6,6,7,7,8,8,9,9,10,10,11,11,12,12,13,13,14,14],"right_children":[2,4,6,8,10,12,14,16,18,20,22,24,26,28,30,-1,-1,-1,-1,-1,-1,-1,-1,-1,-1,-1,-1,-1,-1,-1,-1],"split_conditions":[2E0,6E0,9.385E1,1E0,7.38E1,1E0,9.63E1,2E0,1E0,1E0,2E0,5.445E1,2E0,9.515E1,1.0305E2,6.7824586E-3,-3.311238E-2,1.5836095E-2,3.7191983E-2,2.9165265E-3,-2.0591855E-2,-1.5109224E-3,1.1769365E-2,-2.5693655E-2,-4.874323E-2,-4.069237E-2,5.583575E-2,1.604044E-2,6.88598E-2,-5.1691245E-2,-6.993474E-3],"split_indices":[16,1,2,17,2,0,2,11,8,7,18,2,14,2,2,0,0,0,0,0,0,0,0,0,0,0,0,0,0,0,0],"split_type":[0,0,0,0,0,0,0,0,0,0,0,0,0,0,0,0,0,0,0,0,0,0,0,0,0,0,0,0,0,0,0],"sum_hessian":[1.0102807E3,9.11039E2,9.924166E1,2.6270724E2,6.483317E2,6.2674446E1,3.656722E1,1.0365221E2,1.5905505E2,2.4139865E2,4.069331E2,5.7052036E1,5.6224074E0,3.0266182E0,3.35406E1,8.982352E1,1.3828688E1,1.05194855E2,5.3860195E1,6.6079994E1,1.7531865E2,1.604622E2,2.464709E2,2.9571682E1,2.7480354E1,2.4629424E0,3.159465E0,1.5491698E0,1.4774486E0,5.676887E0,2.7863714E1],"tree_param":{"num_deleted":"0","num_feature":"19","num_nodes":"31","size_leaf_vector":"1"}},{"base_weights":[6.44338E-3,1.374104E-1,-2.1206374E-1,-1.042967E-1,2.2448292E-1,-9.805385E-2,-4.692334E-1,4.886568E-1,-2.1353218E-1,3.5152456E-1,2.413617E-2,1.0107551E-1,-2.9192257E-1,-6.563386E-1,-1.6142237E-1,3.4552E-2,-3.8655642E-2,-2.1086112E-2,7.4029237E-4,6.1937305E-3,2.9225191E-2,-1.0971487E-2,7.5985375E-3,3.7181154E-2,7.090931E-4,-2.4394015E-2,7.686678E-3,-1.4594569E-2,-4.9990725E-2,4.7145408E-2,-2.2524847E-2],"categories":[],"categories_nodes":[],"categories_segments":[],"categories_sizes":[],"default_left":[0,0,0,0,0,0,0,0,0,0,0,0,0,0,0,0,0,0,0,0,0,0,0,0,0,0,0,0,0,0,0],"id":47,"left_children":[1,3,5,7,9,11,13,15,17,19,21,23,25,27,29,-1,-1,-1,-1,-1,-1,-1,-1,-1,-1,-1,-1,-1,-1,-1,-1],"loss_changes":[2.8721409E1,1.3229636E1,1.098209E1,1.0912446E1,1.1741018E1,1.0138754E1,6.5325966E0,7.24062E0,6.7377076E0,1.4906555E1,5.6442676E0,7.243437E0,1.1684782E1,8.641338E0,1.4759376E1,0E0,0E0,0E0,0E0,0E0,0E0,0E0,0E0,0E0,0E0,0E0,0E0,0E0,0E0,0E0,0E0],"parents":[2147483647,0,0,1,1,2,2,3,3,4,4,5,5,6,6,7,7,8,8,9,9,10,10,11,11,12,12,13,13,14,14],"right_children":[2,4,6,8,10,12,14,16,18,20,22,24,26,28,30,-1,-1,-1,-1,-1,-1,-1,-1,-1,-1,-1,-1,-1,-1,-1,-1],"split_conditions":[1E0,1E0,1E0,2E0,2.6E1,2.3E1,7.46E1,1E0,1E0,1E0,1E0,1E0,